<?xml version="1.0" encoding="UTF-8" standalone="yes"?>
<PMML xmlns="http://www.dmg.org/PMML-4_3" version="4.3">
	<Header>
		<Application name="JPMML-SkLearn" version="1.2.8"/>
		<Timestamp>2017-03-01T12:52:05Z</Timestamp>
	</Header>
	<DataDictionary>
		<DataField name="estimated_energy" optype="continuous" dataType="double"/>
		<DataField name="shower:number_of_pixel" optype="continuous" dataType="float"/>
		<DataField name="shower:width" optype="continuous" dataType="float"/>
		<DataField name="shower:length" optype="continuous" dataType="float"/>
		<DataField name="shower:skewness" optype="continuous" dataType="float"/>
		<DataField name="shower:kurtosis" optype="continuous" dataType="float"/>
		<DataField name="shower:miss" optype="continuous" dataType="float"/>
		<DataField name="shower:size" optype="continuous" dataType="float"/>
		<DataField name="array:num_triggered_telescopes" optype="continuous" dataType="float"/>
	</DataDictionary>
	<MiningModel functionName="regression">
		<MiningSchema>
			<MiningField name="estimated_energy" usageType="target"/>
			<MiningField name="shower:kurtosis"/>
			<MiningField name="shower:length"/>
			<MiningField name="array:num_triggered_telescopes"/>
			<MiningField name="shower:miss"/>
			<MiningField name="shower:width"/>
			<MiningField name="shower:skewness"/>
			<MiningField name="shower:number_of_pixel"/>
			<MiningField name="shower:size"/>
		</MiningSchema>
		<Segmentation multipleModelMethod="average">
			<Segment id="1">
				<True/>
				<TreeModel functionName="regression" splitCharacteristic="binarySplit">
					<MiningSchema>
						<MiningField name="shower:number_of_pixel"/>
						<MiningField name="shower:width"/>
						<MiningField name="shower:length"/>
						<MiningField name="shower:skewness"/>
						<MiningField name="shower:kurtosis"/>
						<MiningField name="shower:miss"/>
						<MiningField name="shower:size"/>
						<MiningField name="array:num_triggered_telescopes"/>
					</MiningSchema>
					<Node id="1">
						<True/>
						<Node id="2">
							<SimplePredicate field="shower:width" operator="lessOrEqual" value="0.13916335"/>
							<Node id="3">
								<SimplePredicate field="array:num_triggered_telescopes" operator="lessOrEqual" value="19.5"/>
								<Node id="4">
									<SimplePredicate field="shower:width" operator="lessOrEqual" value="0.0074520465"/>
									<Node id="5">
										<SimplePredicate field="shower:kurtosis" operator="lessOrEqual" value="2.0440435"/>
										<Node id="6">
											<SimplePredicate field="shower:number_of_pixel" operator="lessOrEqual" value="3"/>
											<Node id="7">
												<SimplePredicate field="shower:width" operator="lessOrEqual" value="0.0019197648"/>
												<Node id="8" score="0.26040157675743103">
													<SimplePredicate field="shower:kurtosis" operator="lessOrEqual" value="2.011685"/>
												</Node>
												<Node id="9" score="0.217320516705513">
													<SimplePredicate field="shower:kurtosis" operator="greaterThan" value="2.011685"/>
												</Node>
											</Node>
											<Node id="10" score="1.033503532409668">
												<SimplePredicate field="shower:width" operator="greaterThan" value="0.0019197648"/>
											</Node>
										</Node>
										<Node id="11" score="1.233999490737915">
											<SimplePredicate field="shower:number_of_pixel" operator="greaterThan" value="3"/>
										</Node>
									</Node>
									<Node id="12">
										<SimplePredicate field="shower:kurtosis" operator="greaterThan" value="2.0440435"/>
										<Node id="13">
											<SimplePredicate field="shower:size" operator="lessOrEqual" value="122.23225"/>
											<Node id="14">
												<SimplePredicate field="array:num_triggered_telescopes" operator="lessOrEqual" value="3.5"/>
												<Node id="15">
													<SimplePredicate field="shower:length" operator="lessOrEqual" value="0.008697224"/>
													<Node id="16">
														<SimplePredicate field="shower:miss" operator="lessOrEqual" value="4.72076E-4"/>
														<Node id="17" score="0.3392176628112793">
															<SimplePredicate field="shower:size" operator="lessOrEqual" value="50.689804"/>
														</Node>
														<Node id="18">
															<SimplePredicate field="shower:size" operator="greaterThan" value="50.689804"/>
															<Node id="19" score="0.2344430536031723">
																<SimplePredicate field="shower:miss" operator="lessOrEqual" value="1.6731283E-4"/>
															</Node>
															<Node id="20" score="0.2392181754112244">
																<SimplePredicate field="shower:miss" operator="greaterThan" value="1.6731283E-4"/>
															</Node>
														</Node>
													</Node>
													<Node id="21">
														<SimplePredicate field="shower:miss" operator="greaterThan" value="4.72076E-4"/>
														<Node id="22" score="0.3797502517700195">
															<SimplePredicate field="shower:size" operator="lessOrEqual" value="107.644264"/>
														</Node>
														<Node id="23" score="0.4012019634246826">
															<SimplePredicate field="shower:size" operator="greaterThan" value="107.644264"/>
														</Node>
													</Node>
												</Node>
												<Node id="24">
													<SimplePredicate field="shower:length" operator="greaterThan" value="0.008697224"/>
													<Node id="25" score="1.033503532409668">
														<SimplePredicate field="shower:width" operator="lessOrEqual" value="0.00194705"/>
													</Node>
													<Node id="26" score="0.3392176628112793">
														<SimplePredicate field="shower:width" operator="greaterThan" value="0.00194705"/>
													</Node>
												</Node>
											</Node>
											<Node id="27">
												<SimplePredicate field="array:num_triggered_telescopes" operator="greaterThan" value="3.5"/>
												<Node id="28">
													<SimplePredicate field="shower:kurtosis" operator="lessOrEqual" value="3.1374424"/>
													<Node id="29" score="3.4900226593017583">
														<SimplePredicate field="shower:skewness" operator="lessOrEqual" value="-1.4318283"/>
													</Node>
													<Node id="30" score="2.090883731842041">
														<SimplePredicate field="shower:skewness" operator="greaterThan" value="-1.4318283"/>
													</Node>
												</Node>
												<Node id="31" score="0.20432299375534055">
													<SimplePredicate field="shower:kurtosis" operator="greaterThan" value="3.1374424"/>
												</Node>
											</Node>
										</Node>
										<Node id="32">
											<SimplePredicate field="shower:size" operator="greaterThan" value="122.23225"/>
											<Node id="33">
												<SimplePredicate field="shower:miss" operator="lessOrEqual" value="3.3604173E-4"/>
												<Node id="34">
													<SimplePredicate field="shower:skewness" operator="lessOrEqual" value="-1.7631118"/>
													<Node id="35">
														<SimplePredicate field="shower:size" operator="lessOrEqual" value="363.5211"/>
														<Node id="36" score="0.7616912722587585">
															<SimplePredicate field="shower:kurtosis" operator="lessOrEqual" value="3.7651434"/>
														</Node>
														<Node id="37">
															<SimplePredicate field="shower:kurtosis" operator="greaterThan" value="3.7651434"/>
															<Node id="38" score="1.033503532409668">
																<SimplePredicate field="shower:miss" operator="lessOrEqual" value="4.8533395E-5"/>
															</Node>
															<Node id="39" score="1.233999490737915">
																<SimplePredicate field="shower:miss" operator="greaterThan" value="4.8533395E-5"/>
															</Node>
														</Node>
													</Node>
													<Node id="40">
														<SimplePredicate field="shower:size" operator="greaterThan" value="363.5211"/>
														<Node id="41">
															<SimplePredicate field="shower:miss" operator="lessOrEqual" value="2.1535778E-4"/>
															<Node id="42" score="1.1003355185190837">
																<SimplePredicate field="shower:skewness" operator="lessOrEqual" value="-1.98227"/>
															</Node>
															<Node id="43" score="2.090883731842041">
																<SimplePredicate field="shower:skewness" operator="greaterThan" value="-1.98227"/>
															</Node>
														</Node>
														<Node id="44" score="2.355084180831909">
															<SimplePredicate field="shower:miss" operator="greaterThan" value="2.1535778E-4"/>
														</Node>
													</Node>
												</Node>
												<Node id="45">
													<SimplePredicate field="shower:skewness" operator="greaterThan" value="-1.7631118"/>
													<Node id="46">
														<SimplePredicate field="shower:number_of_pixel" operator="lessOrEqual" value="54.5"/>
														<Node id="47">
															<SimplePredicate field="shower:length" operator="lessOrEqual" value="0.0069209835"/>
															<Node id="48" score="2.090883731842041">
																<SimplePredicate field="shower:kurtosis" operator="lessOrEqual" value="3.4176326"/>
															</Node>
															<Node id="49" score="0.7293902039527893">
																<SimplePredicate field="shower:kurtosis" operator="greaterThan" value="3.4176326"/>
															</Node>
														</Node>
														<Node id="50">
															<SimplePredicate field="shower:length" operator="greaterThan" value="0.0069209835"/>
															<Node id="51" score="2.3362127201897755">
																<SimplePredicate field="shower:kurtosis" operator="lessOrEqual" value="6.5981884"/>
															</Node>
															<Node id="52" score="0.40767157077789307">
																<SimplePredicate field="shower:kurtosis" operator="greaterThan" value="6.5981884"/>
															</Node>
														</Node>
													</Node>
													<Node id="53" score="3.4900226593017583">
														<SimplePredicate field="shower:number_of_pixel" operator="greaterThan" value="54.5"/>
													</Node>
												</Node>
											</Node>
											<Node id="54">
												<SimplePredicate field="shower:miss" operator="greaterThan" value="3.3604173E-4"/>
												<Node id="55" score="0.7616912722587585">
													<SimplePredicate field="array:num_triggered_telescopes" operator="lessOrEqual" value="2.5"/>
												</Node>
												<Node id="56">
													<SimplePredicate field="array:num_triggered_telescopes" operator="greaterThan" value="2.5"/>
													<Node id="57" score="1.033503532409668">
														<SimplePredicate field="shower:length" operator="lessOrEqual" value="0.0026153163"/>
													</Node>
													<Node id="58" score="2.090883731842041">
														<SimplePredicate field="shower:length" operator="greaterThan" value="0.0026153163"/>
													</Node>
												</Node>
											</Node>
										</Node>
									</Node>
								</Node>
								<Node id="59">
									<SimplePredicate field="shower:width" operator="greaterThan" value="0.0074520465"/>
									<Node id="60">
										<SimplePredicate field="shower:miss" operator="lessOrEqual" value="0.017286729"/>
										<Node id="61">
											<SimplePredicate field="shower:kurtosis" operator="lessOrEqual" value="8.5306635"/>
											<Node id="62">
												<SimplePredicate field="shower:miss" operator="lessOrEqual" value="0.0122839715"/>
												<Node id="63">
													<SimplePredicate field="shower:number_of_pixel" operator="lessOrEqual" value="49.5"/>
													<Node id="64" score="0.26454979181289673">
														<SimplePredicate field="shower:skewness" operator="lessOrEqual" value="-0.7972241"/>
													</Node>
													<Node id="65" score="0.26040157675743103">
														<SimplePredicate field="shower:skewness" operator="greaterThan" value="-0.7972241"/>
													</Node>
												</Node>
												<Node id="66" score="0.17490212619304654">
													<SimplePredicate field="shower:number_of_pixel" operator="greaterThan" value="49.5"/>
												</Node>
											</Node>
											<Node id="67" score="0.04472105950117111">
												<SimplePredicate field="shower:miss" operator="greaterThan" value="0.0122839715"/>
											</Node>
										</Node>
										<Node id="68">
											<SimplePredicate field="shower:kurtosis" operator="greaterThan" value="8.5306635"/>
											<Node id="69" score="0.4431573152542114">
												<SimplePredicate field="shower:length" operator="lessOrEqual" value="0.022133471"/>
											</Node>
											<Node id="70" score="0.40767157077789307">
												<SimplePredicate field="shower:length" operator="greaterThan" value="0.022133471"/>
											</Node>
										</Node>
									</Node>
									<Node id="71">
										<SimplePredicate field="shower:miss" operator="greaterThan" value="0.017286729"/>
										<Node id="72" score="0.6432890295982361">
											<SimplePredicate field="shower:size" operator="lessOrEqual" value="10123.172"/>
										</Node>
										<Node id="73" score="1.033503532409668">
											<SimplePredicate field="shower:size" operator="greaterThan" value="10123.172"/>
										</Node>
									</Node>
								</Node>
							</Node>
							<Node id="74" score="3.4900226593017583">
								<SimplePredicate field="array:num_triggered_telescopes" operator="greaterThan" value="19.5"/>
							</Node>
						</Node>
						<Node id="75">
							<SimplePredicate field="shower:width" operator="greaterThan" value="0.13916335"/>
							<Node id="76">
								<SimplePredicate field="array:num_triggered_telescopes" operator="lessOrEqual" value="17.5"/>
								<Node id="77">
									<SimplePredicate field="shower:number_of_pixel" operator="lessOrEqual" value="153"/>
									<Node id="78">
										<SimplePredicate field="shower:kurtosis" operator="lessOrEqual" value="2.884855"/>
										<Node id="79">
											<SimplePredicate field="shower:number_of_pixel" operator="lessOrEqual" value="37.5"/>
											<Node id="80" score="0.06765801459550858">
												<SimplePredicate field="shower:skewness" operator="lessOrEqual" value="-0.15735419"/>
											</Node>
											<Node id="81" score="0.13192306458950046">
												<SimplePredicate field="shower:skewness" operator="greaterThan" value="-0.15735419"/>
											</Node>
										</Node>
										<Node id="82" score="1.033503532409668">
											<SimplePredicate field="shower:number_of_pixel" operator="greaterThan" value="37.5"/>
										</Node>
									</Node>
									<Node id="83">
										<SimplePredicate field="shower:kurtosis" operator="greaterThan" value="2.884855"/>
										<Node id="84">
											<SimplePredicate field="shower:size" operator="lessOrEqual" value="2376.9204"/>
											<Node id="85">
												<SimplePredicate field="shower:number_of_pixel" operator="lessOrEqual" value="46"/>
												<Node id="86">
													<SimplePredicate field="shower:number_of_pixel" operator="lessOrEqual" value="27.5"/>
													<Node id="87">
														<SimplePredicate field="shower:number_of_pixel" operator="lessOrEqual" value="24.5"/>
														<Node id="88">
															<SimplePredicate field="shower:kurtosis" operator="lessOrEqual" value="4.194142"/>
															<Node id="89" score="0.014441831037402153">
																<SimplePredicate field="shower:length" operator="lessOrEqual" value="0.36023426"/>
															</Node>
															<Node id="90" score="0.012229369021952152">
																<SimplePredicate field="shower:length" operator="greaterThan" value="0.36023426"/>
															</Node>
														</Node>
														<Node id="91">
															<SimplePredicate field="shower:kurtosis" operator="greaterThan" value="4.194142"/>
															<Node id="92" score="0.0170851182192564">
																<SimplePredicate field="shower:skewness" operator="lessOrEqual" value="-0.38891476"/>
															</Node>
															<Node id="93" score="0.02746658585965633">
																<SimplePredicate field="shower:skewness" operator="greaterThan" value="-0.38891476"/>
															</Node>
														</Node>
													</Node>
													<Node id="94">
														<SimplePredicate field="shower:number_of_pixel" operator="greaterThan" value="24.5"/>
														<Node id="95" score="0.04472105950117111">
															<SimplePredicate field="shower:length" operator="lessOrEqual" value="0.28184834"/>
														</Node>
														<Node id="96">
															<SimplePredicate field="shower:length" operator="greaterThan" value="0.28184834"/>
															<Node id="97" score="0.03891606256365776">
																<SimplePredicate field="shower:kurtosis" operator="lessOrEqual" value="4.739706"/>
															</Node>
															<Node id="98" score="0.033417243510484695">
																<SimplePredicate field="shower:kurtosis" operator="greaterThan" value="4.739706"/>
															</Node>
														</Node>
													</Node>
												</Node>
												<Node id="99">
													<SimplePredicate field="shower:number_of_pixel" operator="greaterThan" value="27.5"/>
													<Node id="100">
														<SimplePredicate field="array:num_triggered_telescopes" operator="lessOrEqual" value="4.5"/>
														<Node id="101">
															<SimplePredicate field="shower:size" operator="lessOrEqual" value="561.2655"/>
															<Node id="102" score="0.11355450004339218">
																<SimplePredicate field="shower:length" operator="lessOrEqual" value="0.24441028"/>
															</Node>
															<Node id="103" score="0.03891606256365776">
																<SimplePredicate field="shower:length" operator="greaterThan" value="0.24441028"/>
															</Node>
														</Node>
														<Node id="104">
															<SimplePredicate field="shower:size" operator="greaterThan" value="561.2655"/>
															<Node id="105" score="0.038321356289088726">
																<SimplePredicate field="shower:miss" operator="lessOrEqual" value="0.13290879"/>
															</Node>
															<Node id="106" score="0.08175930380821228">
																<SimplePredicate field="shower:miss" operator="greaterThan" value="0.13290879"/>
															</Node>
														</Node>
													</Node>
													<Node id="107">
														<SimplePredicate field="array:num_triggered_telescopes" operator="greaterThan" value="4.5"/>
														<Node id="108">
															<SimplePredicate field="shower:kurtosis" operator="lessOrEqual" value="3.459663"/>
															<Node id="109" score="0.1574665829539299">
																<SimplePredicate field="shower:length" operator="lessOrEqual" value="0.4283188"/>
															</Node>
															<Node id="110" score="0.2728651911020279">
																<SimplePredicate field="shower:length" operator="greaterThan" value="0.4283188"/>
															</Node>
														</Node>
														<Node id="111">
															<SimplePredicate field="shower:kurtosis" operator="greaterThan" value="3.459663"/>
															<Node id="112" score="0.12620561569929123">
																<SimplePredicate field="shower:number_of_pixel" operator="lessOrEqual" value="44"/>
															</Node>
															<Node id="113" score="0.06765801459550858">
																<SimplePredicate field="shower:number_of_pixel" operator="greaterThan" value="44"/>
															</Node>
														</Node>
													</Node>
												</Node>
											</Node>
											<Node id="114">
												<SimplePredicate field="shower:number_of_pixel" operator="greaterThan" value="46"/>
												<Node id="115">
													<SimplePredicate field="shower:width" operator="lessOrEqual" value="0.3138718"/>
													<Node id="116">
														<SimplePredicate field="shower:width" operator="lessOrEqual" value="0.3109571"/>
														<Node id="117">
															<SimplePredicate field="shower:miss" operator="lessOrEqual" value="0.04631036"/>
															<Node id="118" score="0.18123586679046805">
																<SimplePredicate field="shower:miss" operator="lessOrEqual" value="0.034359306"/>
															</Node>
															<Node id="119" score="0.39146193861961365">
																<SimplePredicate field="shower:miss" operator="greaterThan" value="0.034359306"/>
															</Node>
														</Node>
														<Node id="120">
															<SimplePredicate field="shower:miss" operator="greaterThan" value="0.04631036"/>
															<Node id="121" score="0.2171267829835415">
																<SimplePredicate field="shower:width" operator="lessOrEqual" value="0.19041473"/>
															</Node>
															<Node id="122" score="0.10999205261468888">
																<SimplePredicate field="shower:width" operator="greaterThan" value="0.19041473"/>
															</Node>
														</Node>
													</Node>
													<Node id="123" score="0.6432890295982361">
														<SimplePredicate field="shower:width" operator="greaterThan" value="0.3109571"/>
													</Node>
												</Node>
												<Node id="124">
													<SimplePredicate field="shower:width" operator="greaterThan" value="0.3138718"/>
													<Node id="125">
														<SimplePredicate field="shower:miss" operator="lessOrEqual" value="0.0681802"/>
														<Node id="126">
															<SimplePredicate field="shower:width" operator="lessOrEqual" value="0.32114494"/>
															<Node id="127" score="0.01573745533823967">
																<SimplePredicate field="array:num_triggered_telescopes" operator="lessOrEqual" value="3"/>
															</Node>
															<Node id="128" score="0.06150985136628151">
																<SimplePredicate field="array:num_triggered_telescopes" operator="greaterThan" value="3"/>
															</Node>
														</Node>
														<Node id="129">
															<SimplePredicate field="shower:width" operator="greaterThan" value="0.32114494"/>
															<Node id="130" score="0.219877471588552">
																<SimplePredicate field="shower:miss" operator="lessOrEqual" value="0.006100082"/>
															</Node>
															<Node id="131" score="0.13272987907244402">
																<SimplePredicate field="shower:miss" operator="greaterThan" value="0.006100082"/>
															</Node>
														</Node>
													</Node>
													<Node id="132">
														<SimplePredicate field="shower:miss" operator="greaterThan" value="0.0681802"/>
														<Node id="133">
															<SimplePredicate field="shower:width" operator="lessOrEqual" value="0.33948153"/>
															<Node id="134" score="0.3480698764324188">
																<SimplePredicate field="shower:kurtosis" operator="lessOrEqual" value="4.792195"/>
															</Node>
															<Node id="135" score="0.40767157077789307">
																<SimplePredicate field="shower:kurtosis" operator="greaterThan" value="4.792195"/>
															</Node>
														</Node>
														<Node id="136" score="0.6432890295982361">
															<SimplePredicate field="shower:width" operator="greaterThan" value="0.33948153"/>
														</Node>
													</Node>
												</Node>
											</Node>
										</Node>
										<Node id="137">
											<SimplePredicate field="shower:size" operator="greaterThan" value="2376.9204"/>
											<Node id="138">
												<SimplePredicate field="shower:skewness" operator="lessOrEqual" value="-0.102597326"/>
												<Node id="139">
													<SimplePredicate field="shower:skewness" operator="lessOrEqual" value="-0.10750383"/>
													<Node id="140">
														<SimplePredicate field="shower:number_of_pixel" operator="lessOrEqual" value="137.5"/>
														<Node id="141">
															<SimplePredicate field="shower:length" operator="lessOrEqual" value="0.3482154"/>
															<Node id="142" score="0.2366579111133303">
																<SimplePredicate field="shower:size" operator="lessOrEqual" value="2952.3472"/>
															</Node>
															<Node id="143" score="0.5096141558427078">
																<SimplePredicate field="shower:size" operator="greaterThan" value="2952.3472"/>
															</Node>
														</Node>
														<Node id="144">
															<SimplePredicate field="shower:length" operator="greaterThan" value="0.3482154"/>
															<Node id="145" score="0.4431573152542114">
																<SimplePredicate field="shower:kurtosis" operator="lessOrEqual" value="3.6260881"/>
															</Node>
															<Node id="146" score="0.17589462006633932">
																<SimplePredicate field="shower:kurtosis" operator="greaterThan" value="3.6260881"/>
															</Node>
														</Node>
													</Node>
													<Node id="147" score="1.233999490737915">
														<SimplePredicate field="shower:number_of_pixel" operator="greaterThan" value="137.5"/>
													</Node>
												</Node>
												<Node id="148" score="2.355084180831909">
													<SimplePredicate field="shower:skewness" operator="greaterThan" value="-0.10750383"/>
												</Node>
											</Node>
											<Node id="149">
												<SimplePredicate field="shower:skewness" operator="greaterThan" value="-0.102597326"/>
												<Node id="150">
													<SimplePredicate field="shower:kurtosis" operator="lessOrEqual" value="3.5672622"/>
													<Node id="151" score="1.233999490737915">
														<SimplePredicate field="shower:number_of_pixel" operator="lessOrEqual" value="126.5"/>
													</Node>
													<Node id="152" score="0.7616912722587585">
														<SimplePredicate field="shower:number_of_pixel" operator="greaterThan" value="126.5"/>
													</Node>
												</Node>
												<Node id="153">
													<SimplePredicate field="shower:kurtosis" operator="greaterThan" value="3.5672622"/>
													<Node id="154">
														<SimplePredicate field="shower:size" operator="lessOrEqual" value="2403.1772"/>
														<Node id="155">
															<SimplePredicate field="shower:kurtosis" operator="lessOrEqual" value="4.0787516"/>
															<Node id="156" score="0.6432890295982361">
																<SimplePredicate field="shower:miss" operator="lessOrEqual" value="0.021645412"/>
															</Node>
															<Node id="157" score="0.40767157077789307">
																<SimplePredicate field="shower:miss" operator="greaterThan" value="0.021645412"/>
															</Node>
														</Node>
														<Node id="158">
															<SimplePredicate field="shower:kurtosis" operator="greaterThan" value="4.0787516"/>
															<Node id="159" score="0.16461054980754852">
																<SimplePredicate field="array:num_triggered_telescopes" operator="lessOrEqual" value="7.5"/>
															</Node>
															<Node id="160" score="0.2290446609258652">
																<SimplePredicate field="array:num_triggered_telescopes" operator="greaterThan" value="7.5"/>
															</Node>
														</Node>
													</Node>
													<Node id="161">
														<SimplePredicate field="shower:size" operator="greaterThan" value="2403.1772"/>
														<Node id="162">
															<SimplePredicate field="shower:kurtosis" operator="lessOrEqual" value="3.9539797"/>
															<Node id="163" score="0.09790941966431481">
																<SimplePredicate field="shower:size" operator="lessOrEqual" value="2652.995"/>
															</Node>
															<Node id="164" score="0.2588390012582143">
																<SimplePredicate field="shower:size" operator="greaterThan" value="2652.995"/>
															</Node>
														</Node>
														<Node id="165">
															<SimplePredicate field="shower:kurtosis" operator="greaterThan" value="3.9539797"/>
															<Node id="166" score="0.26700200411406433">
																<SimplePredicate field="shower:miss" operator="lessOrEqual" value="0.051004887"/>
															</Node>
															<Node id="167" score="0.4665759354829788">
																<SimplePredicate field="shower:miss" operator="greaterThan" value="0.051004887"/>
															</Node>
														</Node>
													</Node>
												</Node>
											</Node>
										</Node>
									</Node>
								</Node>
								<Node id="168">
									<SimplePredicate field="shower:number_of_pixel" operator="greaterThan" value="153"/>
									<Node id="169">
										<SimplePredicate field="shower:width" operator="lessOrEqual" value="0.31857276"/>
										<Node id="170" score="1.033503532409668">
											<SimplePredicate field="shower:length" operator="lessOrEqual" value="0.35238832"/>
										</Node>
										<Node id="171" score="1.233999490737915">
											<SimplePredicate field="shower:length" operator="greaterThan" value="0.35238832"/>
										</Node>
									</Node>
									<Node id="172" score="3.4900226593017583">
										<SimplePredicate field="shower:width" operator="greaterThan" value="0.31857276"/>
									</Node>
								</Node>
							</Node>
							<Node id="173">
								<SimplePredicate field="array:num_triggered_telescopes" operator="greaterThan" value="17.5"/>
								<Node id="174">
									<SimplePredicate field="array:num_triggered_telescopes" operator="lessOrEqual" value="19.5"/>
									<Node id="175">
										<SimplePredicate field="shower:length" operator="lessOrEqual" value="0.37475783"/>
										<Node id="176" score="2.090883731842041">
											<SimplePredicate field="shower:length" operator="lessOrEqual" value="0.20218244"/>
										</Node>
										<Node id="177" score="1.033503532409668">
											<SimplePredicate field="shower:length" operator="greaterThan" value="0.20218244"/>
										</Node>
									</Node>
									<Node id="178">
										<SimplePredicate field="shower:length" operator="greaterThan" value="0.37475783"/>
										<Node id="179" score="2.090883731842041">
											<SimplePredicate field="shower:width" operator="lessOrEqual" value="0.32941127"/>
										</Node>
										<Node id="180">
											<SimplePredicate field="shower:width" operator="greaterThan" value="0.32941127"/>
											<Node id="181" score="1.033503532409668">
												<SimplePredicate field="shower:size" operator="lessOrEqual" value="2304.768"/>
											</Node>
											<Node id="182" score="2.090883731842041">
												<SimplePredicate field="shower:size" operator="greaterThan" value="2304.768"/>
											</Node>
										</Node>
									</Node>
								</Node>
								<Node id="183" score="3.4900226593017583">
									<SimplePredicate field="array:num_triggered_telescopes" operator="greaterThan" value="19.5"/>
								</Node>
							</Node>
						</Node>
					</Node>
				</TreeModel>
			</Segment>
			<Segment id="2">
				<True/>
				<TreeModel functionName="regression" splitCharacteristic="binarySplit">
					<MiningSchema>
						<MiningField name="shower:number_of_pixel"/>
						<MiningField name="shower:width"/>
						<MiningField name="shower:length"/>
						<MiningField name="shower:skewness"/>
						<MiningField name="shower:kurtosis"/>
						<MiningField name="shower:miss"/>
						<MiningField name="shower:size"/>
						<MiningField name="array:num_triggered_telescopes"/>
					</MiningSchema>
					<Node id="1">
						<True/>
						<Node id="2">
							<SimplePredicate field="shower:width" operator="lessOrEqual" value="0.13459167"/>
							<Node id="3">
								<SimplePredicate field="shower:size" operator="lessOrEqual" value="357.25815"/>
								<Node id="4">
									<SimplePredicate field="shower:length" operator="lessOrEqual" value="0.032524996"/>
									<Node id="5">
										<SimplePredicate field="shower:length" operator="lessOrEqual" value="0.007943229"/>
										<Node id="6">
											<SimplePredicate field="array:num_triggered_telescopes" operator="lessOrEqual" value="3.5"/>
											<Node id="7" score="1.033503532409668">
												<SimplePredicate field="shower:skewness" operator="lessOrEqual" value="-1.9227295"/>
											</Node>
											<Node id="8">
												<SimplePredicate field="shower:skewness" operator="greaterThan" value="-1.9227295"/>
												<Node id="9">
													<SimplePredicate field="shower:skewness" operator="lessOrEqual" value="1.6691464"/>
													<Node id="10">
														<SimplePredicate field="shower:width" operator="lessOrEqual" value="0.0049132854"/>
														<Node id="11">
															<SimplePredicate field="shower:size" operator="lessOrEqual" value="49.667915"/>
															<Node id="12" score="0.26040157675743103">
																<SimplePredicate field="shower:length" operator="lessOrEqual" value="0.0066493144"/>
															</Node>
															<Node id="13" score="0.3392176628112793">
																<SimplePredicate field="shower:length" operator="greaterThan" value="0.0066493144"/>
															</Node>
														</Node>
														<Node id="14">
															<SimplePredicate field="shower:size" operator="greaterThan" value="49.667915"/>
															<Node id="15" score="0.1353627989689509">
																<SimplePredicate field="shower:number_of_pixel" operator="lessOrEqual" value="2.5"/>
															</Node>
															<Node id="16" score="0.23101854622364043">
																<SimplePredicate field="shower:number_of_pixel" operator="greaterThan" value="2.5"/>
															</Node>
														</Node>
													</Node>
													<Node id="17" score="0.4012019634246826">
														<SimplePredicate field="shower:width" operator="greaterThan" value="0.0049132854"/>
													</Node>
												</Node>
												<Node id="18">
													<SimplePredicate field="shower:skewness" operator="greaterThan" value="1.6691464"/>
													<Node id="19" score="0.7293902039527893">
														<SimplePredicate field="shower:kurtosis" operator="lessOrEqual" value="3.744891"/>
													</Node>
													<Node id="20" score="0.2392181754112244">
														<SimplePredicate field="shower:kurtosis" operator="greaterThan" value="3.744891"/>
													</Node>
												</Node>
											</Node>
										</Node>
										<Node id="21">
											<SimplePredicate field="array:num_triggered_telescopes" operator="greaterThan" value="3.5"/>
											<Node id="22" score="2.090883731842041">
												<SimplePredicate field="shower:length" operator="lessOrEqual" value="0.0024902578"/>
											</Node>
											<Node id="23">
												<SimplePredicate field="shower:length" operator="greaterThan" value="0.0024902578"/>
												<Node id="24" score="1.033503532409668">
													<SimplePredicate field="shower:length" operator="lessOrEqual" value="0.005027226"/>
												</Node>
												<Node id="25" score="1.233999490737915">
													<SimplePredicate field="shower:length" operator="greaterThan" value="0.005027226"/>
												</Node>
											</Node>
										</Node>
									</Node>
									<Node id="26">
										<SimplePredicate field="shower:length" operator="greaterThan" value="0.007943229"/>
										<Node id="27">
											<SimplePredicate field="shower:length" operator="lessOrEqual" value="0.009231787"/>
											<Node id="28" score="2.355084180831909">
												<SimplePredicate field="shower:kurtosis" operator="lessOrEqual" value="3.1852562"/>
											</Node>
											<Node id="29" score="0.7616912722587585">
												<SimplePredicate field="shower:kurtosis" operator="greaterThan" value="3.1852562"/>
											</Node>
										</Node>
										<Node id="30">
											<SimplePredicate field="shower:length" operator="greaterThan" value="0.009231787"/>
											<Node id="31" score="2.090883731842041">
												<SimplePredicate field="shower:width" operator="lessOrEqual" value="6.559154E-4"/>
											</Node>
											<Node id="32">
												<SimplePredicate field="shower:width" operator="greaterThan" value="6.559154E-4"/>
												<Node id="33">
													<SimplePredicate field="shower:number_of_pixel" operator="lessOrEqual" value="9.5"/>
													<Node id="34" score="0.26040157675743103">
														<SimplePredicate field="shower:number_of_pixel" operator="lessOrEqual" value="3.5"/>
													</Node>
													<Node id="35">
														<SimplePredicate field="shower:number_of_pixel" operator="greaterThan" value="3.5"/>
														<Node id="36">
															<SimplePredicate field="shower:kurtosis" operator="lessOrEqual" value="2.8198066"/>
															<Node id="37" score="1.033503532409668">
																<SimplePredicate field="shower:size" operator="lessOrEqual" value="135.34389"/>
															</Node>
															<Node id="38" score="2.090883731842041">
																<SimplePredicate field="shower:size" operator="greaterThan" value="135.34389"/>
															</Node>
														</Node>
														<Node id="39">
															<SimplePredicate field="shower:kurtosis" operator="greaterThan" value="2.8198066"/>
															<Node id="40" score="0.7616912722587585">
																<SimplePredicate field="shower:skewness" operator="lessOrEqual" value="-2.1629632"/>
															</Node>
															<Node id="41" score="0.45486841031483244">
																<SimplePredicate field="shower:skewness" operator="greaterThan" value="-2.1629632"/>
															</Node>
														</Node>
													</Node>
												</Node>
												<Node id="42">
													<SimplePredicate field="shower:number_of_pixel" operator="greaterThan" value="9.5"/>
													<Node id="43" score="1.233999490737915">
														<SimplePredicate field="shower:kurtosis" operator="lessOrEqual" value="2.8843322"/>
													</Node>
													<Node id="44">
														<SimplePredicate field="shower:kurtosis" operator="greaterThan" value="2.8843322"/>
														<Node id="45" score="2.355084180831909">
															<SimplePredicate field="shower:number_of_pixel" operator="lessOrEqual" value="11"/>
														</Node>
														<Node id="46" score="1.233999490737915">
															<SimplePredicate field="shower:number_of_pixel" operator="greaterThan" value="11"/>
														</Node>
													</Node>
												</Node>
											</Node>
										</Node>
									</Node>
								</Node>
								<Node id="47">
									<SimplePredicate field="shower:length" operator="greaterThan" value="0.032524996"/>
									<Node id="48" score="1.233999490737915">
										<SimplePredicate field="shower:size" operator="lessOrEqual" value="34.040756"/>
									</Node>
									<Node id="49" score="3.4900226593017583">
										<SimplePredicate field="shower:size" operator="greaterThan" value="34.040756"/>
									</Node>
								</Node>
							</Node>
							<Node id="50">
								<SimplePredicate field="shower:size" operator="greaterThan" value="357.25815"/>
								<Node id="51">
									<SimplePredicate field="shower:length" operator="lessOrEqual" value="0.06843498"/>
									<Node id="52" score="3.4900226593017583">
										<SimplePredicate field="shower:kurtosis" operator="lessOrEqual" value="3.4729824"/>
									</Node>
									<Node id="53">
										<SimplePredicate field="shower:kurtosis" operator="greaterThan" value="3.4729824"/>
										<Node id="54">
											<SimplePredicate field="shower:skewness" operator="lessOrEqual" value="-0.05853325"/>
											<Node id="55">
												<SimplePredicate field="shower:miss" operator="lessOrEqual" value="1.78099E-4"/>
												<Node id="56">
													<SimplePredicate field="shower:skewness" operator="lessOrEqual" value="-1.9837141"/>
													<Node id="57" score="1.033503532409668">
														<SimplePredicate field="shower:width" operator="lessOrEqual" value="0.002259098"/>
													</Node>
													<Node id="58" score="1.233999490737915">
														<SimplePredicate field="shower:width" operator="greaterThan" value="0.002259098"/>
													</Node>
												</Node>
												<Node id="59" score="0.7616912722587585">
													<SimplePredicate field="shower:skewness" operator="greaterThan" value="-1.9837141"/>
												</Node>
											</Node>
											<Node id="60">
												<SimplePredicate field="shower:miss" operator="greaterThan" value="1.78099E-4"/>
												<Node id="61" score="2.355084180831909">
													<SimplePredicate field="shower:skewness" operator="lessOrEqual" value="-2.0530534"/>
												</Node>
												<Node id="62" score="2.090883731842041">
													<SimplePredicate field="shower:skewness" operator="greaterThan" value="-2.0530534"/>
												</Node>
											</Node>
										</Node>
										<Node id="63">
											<SimplePredicate field="shower:skewness" operator="greaterThan" value="-0.05853325"/>
											<Node id="64">
												<SimplePredicate field="shower:kurtosis" operator="lessOrEqual" value="8.998226"/>
												<Node id="65">
													<SimplePredicate field="shower:skewness" operator="lessOrEqual" value="2.2445862"/>
													<Node id="66" score="2.355084180831909">
														<SimplePredicate field="shower:kurtosis" operator="lessOrEqual" value="4.647666"/>
													</Node>
													<Node id="67" score="2.090883731842041">
														<SimplePredicate field="shower:kurtosis" operator="greaterThan" value="4.647666"/>
													</Node>
												</Node>
												<Node id="68" score="2.355084180831909">
													<SimplePredicate field="shower:skewness" operator="greaterThan" value="2.2445862"/>
												</Node>
											</Node>
											<Node id="69" score="3.4900226593017583">
												<SimplePredicate field="shower:kurtosis" operator="greaterThan" value="8.998226"/>
											</Node>
										</Node>
									</Node>
								</Node>
								<Node id="70">
									<SimplePredicate field="shower:length" operator="greaterThan" value="0.06843498"/>
									<Node id="71">
										<SimplePredicate field="shower:length" operator="lessOrEqual" value="0.19445288"/>
										<Node id="72" score="1.033503532409668">
											<SimplePredicate field="shower:skewness" operator="lessOrEqual" value="-1.1152256"/>
										</Node>
										<Node id="73">
											<SimplePredicate field="shower:skewness" operator="greaterThan" value="-1.1152256"/>
											<Node id="74" score="0.26040157675743103">
												<SimplePredicate field="shower:miss" operator="lessOrEqual" value="0.025702713"/>
											</Node>
											<Node id="75" score="0.21919335424900052">
												<SimplePredicate field="shower:miss" operator="greaterThan" value="0.025702713"/>
											</Node>
										</Node>
									</Node>
									<Node id="76" score="3.4900226593017583">
										<SimplePredicate field="shower:length" operator="greaterThan" value="0.19445288"/>
									</Node>
								</Node>
							</Node>
						</Node>
						<Node id="77">
							<SimplePredicate field="shower:width" operator="greaterThan" value="0.13459167"/>
							<Node id="78">
								<SimplePredicate field="array:num_triggered_telescopes" operator="lessOrEqual" value="19.5"/>
								<Node id="79">
									<SimplePredicate field="array:num_triggered_telescopes" operator="lessOrEqual" value="17.5"/>
									<Node id="80">
										<SimplePredicate field="shower:number_of_pixel" operator="lessOrEqual" value="155.5"/>
										<Node id="81">
											<SimplePredicate field="shower:number_of_pixel" operator="lessOrEqual" value="119.5"/>
											<Node id="82">
												<SimplePredicate field="shower:miss" operator="lessOrEqual" value="0.136004"/>
												<Node id="83">
													<SimplePredicate field="shower:size" operator="lessOrEqual" value="2280.836"/>
													<Node id="84">
														<SimplePredicate field="shower:number_of_pixel" operator="lessOrEqual" value="47"/>
														<Node id="85">
															<SimplePredicate field="shower:skewness" operator="lessOrEqual" value="-0.3478834"/>
															<Node id="86" score="0.09937126774873052">
																<SimplePredicate field="shower:miss" operator="lessOrEqual" value="0.010275322"/>
															</Node>
															<Node id="87" score="0.04835485387593508">
																<SimplePredicate field="shower:miss" operator="greaterThan" value="0.010275322"/>
															</Node>
														</Node>
														<Node id="88">
															<SimplePredicate field="shower:skewness" operator="greaterThan" value="-0.3478834"/>
															<Node id="89" score="0.04003785760141909">
																<SimplePredicate field="shower:width" operator="lessOrEqual" value="0.20773181"/>
															</Node>
															<Node id="90" score="0.13029849362270585">
																<SimplePredicate field="shower:width" operator="greaterThan" value="0.20773181"/>
															</Node>
														</Node>
													</Node>
													<Node id="91">
														<SimplePredicate field="shower:number_of_pixel" operator="greaterThan" value="47"/>
														<Node id="92">
															<SimplePredicate field="shower:number_of_pixel" operator="lessOrEqual" value="85.5"/>
															<Node id="93" score="0.22361955212222207">
																<SimplePredicate field="array:num_triggered_telescopes" operator="lessOrEqual" value="14"/>
															</Node>
															<Node id="94" score="0.6432890295982361">
																<SimplePredicate field="array:num_triggered_telescopes" operator="greaterThan" value="14"/>
															</Node>
														</Node>
														<Node id="95">
															<SimplePredicate field="shower:number_of_pixel" operator="greaterThan" value="85.5"/>
															<Node id="96" score="0.40767157077789307">
																<SimplePredicate field="shower:length" operator="lessOrEqual" value="0.30755022"/>
															</Node>
															<Node id="97" score="0.12065853188661012">
																<SimplePredicate field="shower:length" operator="greaterThan" value="0.30755022"/>
															</Node>
														</Node>
													</Node>
												</Node>
												<Node id="98">
													<SimplePredicate field="shower:size" operator="greaterThan" value="2280.836"/>
													<Node id="99">
														<SimplePredicate field="shower:miss" operator="lessOrEqual" value="0.06518619"/>
														<Node id="100">
															<SimplePredicate field="array:num_triggered_telescopes" operator="lessOrEqual" value="14"/>
															<Node id="101" score="0.25343978016272833">
																<SimplePredicate field="shower:skewness" operator="lessOrEqual" value="-0.24249193"/>
															</Node>
															<Node id="102" score="0.17708660985686278">
																<SimplePredicate field="shower:skewness" operator="greaterThan" value="-0.24249193"/>
															</Node>
														</Node>
														<Node id="103" score="0.6432890295982361">
															<SimplePredicate field="array:num_triggered_telescopes" operator="greaterThan" value="14"/>
														</Node>
													</Node>
													<Node id="104">
														<SimplePredicate field="shower:miss" operator="greaterThan" value="0.06518619"/>
														<Node id="105" score="0.6432890295982361">
															<SimplePredicate field="shower:miss" operator="lessOrEqual" value="0.07428707"/>
														</Node>
														<Node id="106">
															<SimplePredicate field="shower:miss" operator="greaterThan" value="0.07428707"/>
															<Node id="107" score="0.19045634071032205">
																<SimplePredicate field="shower:kurtosis" operator="lessOrEqual" value="5.809085"/>
															</Node>
															<Node id="108" score="0.40767157077789307">
																<SimplePredicate field="shower:kurtosis" operator="greaterThan" value="5.809085"/>
															</Node>
														</Node>
													</Node>
												</Node>
											</Node>
											<Node id="109">
												<SimplePredicate field="shower:miss" operator="greaterThan" value="0.136004"/>
												<Node id="110" score="0.06683071702718735">
													<SimplePredicate field="shower:number_of_pixel" operator="lessOrEqual" value="33.5"/>
												</Node>
												<Node id="111" score="1.033503532409668">
													<SimplePredicate field="shower:number_of_pixel" operator="greaterThan" value="33.5"/>
												</Node>
											</Node>
										</Node>
										<Node id="112">
											<SimplePredicate field="shower:number_of_pixel" operator="greaterThan" value="119.5"/>
											<Node id="113">
												<SimplePredicate field="array:num_triggered_telescopes" operator="lessOrEqual" value="14"/>
												<Node id="114">
													<SimplePredicate field="shower:miss" operator="lessOrEqual" value="0.0043453933"/>
													<Node id="115" score="0.21919335424900052">
														<SimplePredicate field="shower:skewness" operator="lessOrEqual" value="-0.22702286"/>
													</Node>
													<Node id="116">
														<SimplePredicate field="shower:skewness" operator="greaterThan" value="-0.22702286"/>
														<Node id="117" score="0.29420414566993713">
															<SimplePredicate field="shower:number_of_pixel" operator="lessOrEqual" value="130"/>
														</Node>
														<Node id="118" score="1.233999490737915">
															<SimplePredicate field="shower:number_of_pixel" operator="greaterThan" value="130"/>
														</Node>
													</Node>
												</Node>
												<Node id="119">
													<SimplePredicate field="shower:miss" operator="greaterThan" value="0.0043453933"/>
													<Node id="120">
														<SimplePredicate field="shower:length" operator="lessOrEqual" value="0.40684655"/>
														<Node id="121">
															<SimplePredicate field="shower:width" operator="lessOrEqual" value="0.31083685"/>
															<Node id="122" score="1.233999490737915">
																<SimplePredicate field="shower:kurtosis" operator="lessOrEqual" value="3.638133"/>
															</Node>
															<Node id="123" score="0.24826992835317338">
																<SimplePredicate field="shower:kurtosis" operator="greaterThan" value="3.638133"/>
															</Node>
														</Node>
														<Node id="124">
															<SimplePredicate field="shower:width" operator="greaterThan" value="0.31083685"/>
															<Node id="125" score="0.27221818920224905">
																<SimplePredicate field="shower:miss" operator="lessOrEqual" value="0.055682175"/>
															</Node>
															<Node id="126" score="0.17352359294891356">
																<SimplePredicate field="shower:miss" operator="greaterThan" value="0.055682175"/>
															</Node>
														</Node>
													</Node>
													<Node id="127">
														<SimplePredicate field="shower:length" operator="greaterThan" value="0.40684655"/>
														<Node id="128" score="0.26454979181289673">
															<SimplePredicate field="shower:skewness" operator="lessOrEqual" value="0.07871397"/>
														</Node>
														<Node id="129" score="0.7616912722587585">
															<SimplePredicate field="shower:skewness" operator="greaterThan" value="0.07871397"/>
														</Node>
													</Node>
												</Node>
											</Node>
											<Node id="130" score="0.6432890295982361">
												<SimplePredicate field="array:num_triggered_telescopes" operator="greaterThan" value="14"/>
											</Node>
										</Node>
									</Node>
									<Node id="131">
										<SimplePredicate field="shower:number_of_pixel" operator="greaterThan" value="155.5"/>
										<Node id="132" score="3.4900226593017583">
											<SimplePredicate field="shower:kurtosis" operator="lessOrEqual" value="3.758851"/>
										</Node>
										<Node id="133">
											<SimplePredicate field="shower:kurtosis" operator="greaterThan" value="3.758851"/>
											<Node id="134" score="1.033503532409668">
												<SimplePredicate field="shower:skewness" operator="lessOrEqual" value="-0.19941776"/>
											</Node>
											<Node id="135" score="1.233999490737915">
												<SimplePredicate field="shower:skewness" operator="greaterThan" value="-0.19941776"/>
											</Node>
										</Node>
									</Node>
								</Node>
								<Node id="136">
									<SimplePredicate field="array:num_triggered_telescopes" operator="greaterThan" value="17.5"/>
									<Node id="137" score="1.033503532409668">
										<SimplePredicate field="shower:skewness" operator="lessOrEqual" value="0.08411291"/>
									</Node>
									<Node id="138">
										<SimplePredicate field="shower:skewness" operator="greaterThan" value="0.08411291"/>
										<Node id="139">
											<SimplePredicate field="shower:width" operator="lessOrEqual" value="0.28825784"/>
											<Node id="140">
												<SimplePredicate field="shower:length" operator="lessOrEqual" value="0.24184269"/>
												<Node id="141" score="2.090883731842041">
													<SimplePredicate field="shower:miss" operator="lessOrEqual" value="0.0529671"/>
												</Node>
												<Node id="142" score="1.033503532409668">
													<SimplePredicate field="shower:miss" operator="greaterThan" value="0.0529671"/>
												</Node>
											</Node>
											<Node id="143" score="2.090883731842041">
												<SimplePredicate field="shower:length" operator="greaterThan" value="0.24184269"/>
											</Node>
										</Node>
										<Node id="144">
											<SimplePredicate field="shower:width" operator="greaterThan" value="0.28825784"/>
											<Node id="145" score="2.090883731842041">
												<SimplePredicate field="shower:kurtosis" operator="lessOrEqual" value="3.497991"/>
											</Node>
											<Node id="146" score="1.033503532409668">
												<SimplePredicate field="shower:kurtosis" operator="greaterThan" value="3.497991"/>
											</Node>
										</Node>
									</Node>
								</Node>
							</Node>
							<Node id="147" score="3.4900226593017583">
								<SimplePredicate field="array:num_triggered_telescopes" operator="greaterThan" value="19.5"/>
							</Node>
						</Node>
					</Node>
				</TreeModel>
			</Segment>
			<Segment id="3">
				<True/>
				<TreeModel functionName="regression" splitCharacteristic="binarySplit">
					<MiningSchema>
						<MiningField name="shower:number_of_pixel"/>
						<MiningField name="shower:width"/>
						<MiningField name="shower:length"/>
						<MiningField name="shower:skewness"/>
						<MiningField name="shower:kurtosis"/>
						<MiningField name="shower:miss"/>
						<MiningField name="shower:size"/>
						<MiningField name="array:num_triggered_telescopes"/>
					</MiningSchema>
					<Node id="1">
						<True/>
						<Node id="2">
							<SimplePredicate field="array:num_triggered_telescopes" operator="lessOrEqual" value="17.5"/>
							<Node id="3">
								<SimplePredicate field="shower:length" operator="lessOrEqual" value="0.03963341"/>
								<Node id="4">
									<SimplePredicate field="shower:kurtosis" operator="lessOrEqual" value="2.9056704"/>
									<Node id="5">
										<SimplePredicate field="shower:length" operator="lessOrEqual" value="0.011431098"/>
										<Node id="6">
											<SimplePredicate field="shower:skewness" operator="lessOrEqual" value="1.4550889"/>
											<Node id="7">
												<SimplePredicate field="shower:kurtosis" operator="lessOrEqual" value="2.4377184"/>
												<Node id="8">
													<SimplePredicate field="shower:miss" operator="lessOrEqual" value="1.8761557E-4"/>
													<Node id="9" score="0.26040157675743103">
														<SimplePredicate field="shower:skewness" operator="lessOrEqual" value="0.0030255914"/>
													</Node>
													<Node id="10" score="0.217320516705513">
														<SimplePredicate field="shower:skewness" operator="greaterThan" value="0.0030255914"/>
													</Node>
												</Node>
												<Node id="11" score="0.09438394010066986">
													<SimplePredicate field="shower:miss" operator="greaterThan" value="1.8761557E-4"/>
												</Node>
											</Node>
											<Node id="12">
												<SimplePredicate field="shower:kurtosis" operator="greaterThan" value="2.4377184"/>
												<Node id="13" score="0.217320516705513">
													<SimplePredicate field="shower:number_of_pixel" operator="lessOrEqual" value="4.5"/>
												</Node>
												<Node id="14">
													<SimplePredicate field="shower:number_of_pixel" operator="greaterThan" value="4.5"/>
													<Node id="15" score="0.4012019634246826">
														<SimplePredicate field="shower:length" operator="lessOrEqual" value="0.0089701"/>
													</Node>
													<Node id="16" score="0.3797502517700195">
														<SimplePredicate field="shower:length" operator="greaterThan" value="0.0089701"/>
													</Node>
												</Node>
											</Node>
										</Node>
										<Node id="17">
											<SimplePredicate field="shower:skewness" operator="greaterThan" value="1.4550889"/>
											<Node id="18" score="1.033503532409668">
												<SimplePredicate field="shower:skewness" operator="lessOrEqual" value="1.4969262"/>
											</Node>
											<Node id="19">
												<SimplePredicate field="shower:skewness" operator="greaterThan" value="1.4969262"/>
												<Node id="20" score="0.3392176628112793">
													<SimplePredicate field="shower:width" operator="lessOrEqual" value="8.893189E-4"/>
												</Node>
												<Node id="21">
													<SimplePredicate field="shower:width" operator="greaterThan" value="8.893189E-4"/>
													<Node id="22" score="0.2344430536031723">
														<SimplePredicate field="shower:length" operator="lessOrEqual" value="0.0060828"/>
													</Node>
													<Node id="23" score="0.26040157675743103">
														<SimplePredicate field="shower:length" operator="greaterThan" value="0.0060828"/>
													</Node>
												</Node>
											</Node>
										</Node>
									</Node>
									<Node id="24">
										<SimplePredicate field="shower:length" operator="greaterThan" value="0.011431098"/>
										<Node id="25">
											<SimplePredicate field="shower:size" operator="lessOrEqual" value="116.09047"/>
											<Node id="26" score="1.233999490737915">
												<SimplePredicate field="shower:size" operator="lessOrEqual" value="30.854889"/>
											</Node>
											<Node id="27" score="1.033503532409668">
												<SimplePredicate field="shower:size" operator="greaterThan" value="30.854889"/>
											</Node>
										</Node>
										<Node id="28" score="2.355084180831909">
											<SimplePredicate field="shower:size" operator="greaterThan" value="116.09047"/>
										</Node>
									</Node>
								</Node>
								<Node id="29">
									<SimplePredicate field="shower:kurtosis" operator="greaterThan" value="2.9056704"/>
									<Node id="30">
										<SimplePredicate field="array:num_triggered_telescopes" operator="lessOrEqual" value="2.5"/>
										<Node id="31" score="0.7616912722587585">
											<SimplePredicate field="shower:skewness" operator="lessOrEqual" value="-2.215857"/>
										</Node>
										<Node id="32">
											<SimplePredicate field="shower:skewness" operator="greaterThan" value="-2.215857"/>
											<Node id="33">
												<SimplePredicate field="shower:size" operator="lessOrEqual" value="112.03053"/>
												<Node id="34" score="0.26040157675743103">
													<SimplePredicate field="shower:skewness" operator="lessOrEqual" value="-1.9304974"/>
												</Node>
												<Node id="35">
													<SimplePredicate field="shower:skewness" operator="greaterThan" value="-1.9304974"/>
													<Node id="36" score="0.2392181754112244">
														<SimplePredicate field="shower:miss" operator="lessOrEqual" value="2.8373548E-4"/>
													</Node>
													<Node id="37">
														<SimplePredicate field="shower:miss" operator="greaterThan" value="2.8373548E-4"/>
														<Node id="38" score="0.3595694303512573">
															<SimplePredicate field="shower:kurtosis" operator="lessOrEqual" value="3.3540225"/>
														</Node>
														<Node id="39" score="0.3797502517700195">
															<SimplePredicate field="shower:kurtosis" operator="greaterThan" value="3.3540225"/>
														</Node>
													</Node>
												</Node>
											</Node>
											<Node id="40">
												<SimplePredicate field="shower:size" operator="greaterThan" value="112.03053"/>
												<Node id="41" score="0.7616912722587585">
													<SimplePredicate field="shower:skewness" operator="lessOrEqual" value="-1.8065085"/>
												</Node>
												<Node id="42" score="0.7293902039527893">
													<SimplePredicate field="shower:skewness" operator="greaterThan" value="-1.8065085"/>
												</Node>
											</Node>
										</Node>
									</Node>
									<Node id="43">
										<SimplePredicate field="array:num_triggered_telescopes" operator="greaterThan" value="2.5"/>
										<Node id="44">
											<SimplePredicate field="shower:skewness" operator="lessOrEqual" value="-2.0415335"/>
											<Node id="45" score="0.2853288054466248">
												<SimplePredicate field="shower:width" operator="lessOrEqual" value="0.0011829468"/>
											</Node>
											<Node id="46">
												<SimplePredicate field="shower:width" operator="greaterThan" value="0.0011829468"/>
												<Node id="47" score="2.355084180831909">
													<SimplePredicate field="shower:width" operator="lessOrEqual" value="0.0015257916"/>
												</Node>
												<Node id="48" score="1.033503532409668">
													<SimplePredicate field="shower:width" operator="greaterThan" value="0.0015257916"/>
												</Node>
											</Node>
										</Node>
										<Node id="49">
											<SimplePredicate field="shower:skewness" operator="greaterThan" value="-2.0415335"/>
											<Node id="50">
												<SimplePredicate field="shower:kurtosis" operator="lessOrEqual" value="6.2658815"/>
												<Node id="51">
													<SimplePredicate field="shower:length" operator="lessOrEqual" value="0.02660697"/>
													<Node id="52" score="1.233999490737915">
														<SimplePredicate field="shower:width" operator="lessOrEqual" value="0.0015467275"/>
													</Node>
													<Node id="53">
														<SimplePredicate field="shower:width" operator="greaterThan" value="0.0015467275"/>
														<Node id="54">
															<SimplePredicate field="shower:skewness" operator="lessOrEqual" value="1.7497252"/>
															<Node id="55" score="2.178950548171997">
																<SimplePredicate field="shower:width" operator="lessOrEqual" value="0.0020215386"/>
															</Node>
															<Node id="56" score="2.090883731842041">
																<SimplePredicate field="shower:width" operator="greaterThan" value="0.0020215386"/>
															</Node>
														</Node>
														<Node id="57" score="2.355084180831909">
															<SimplePredicate field="shower:skewness" operator="greaterThan" value="1.7497252"/>
														</Node>
													</Node>
												</Node>
												<Node id="58" score="3.4900226593017583">
													<SimplePredicate field="shower:length" operator="greaterThan" value="0.02660697"/>
												</Node>
											</Node>
											<Node id="59" score="0.40767157077789307">
												<SimplePredicate field="shower:kurtosis" operator="greaterThan" value="6.2658815"/>
											</Node>
										</Node>
									</Node>
								</Node>
							</Node>
							<Node id="60">
								<SimplePredicate field="shower:length" operator="greaterThan" value="0.03963341"/>
								<Node id="61">
									<SimplePredicate field="shower:number_of_pixel" operator="lessOrEqual" value="138.5"/>
									<Node id="62">
										<SimplePredicate field="shower:size" operator="lessOrEqual" value="2623.7812"/>
										<Node id="63">
											<SimplePredicate field="shower:kurtosis" operator="lessOrEqual" value="3.8877342"/>
											<Node id="64">
												<SimplePredicate field="array:num_triggered_telescopes" operator="lessOrEqual" value="14"/>
												<Node id="65">
													<SimplePredicate field="shower:size" operator="lessOrEqual" value="2369.1045"/>
													<Node id="66">
														<SimplePredicate field="shower:number_of_pixel" operator="lessOrEqual" value="94.5"/>
														<Node id="67">
															<SimplePredicate field="shower:number_of_pixel" operator="lessOrEqual" value="52.5"/>
															<Node id="68" score="0.1445234132070954">
																<SimplePredicate field="shower:width" operator="lessOrEqual" value="0.35395885"/>
															</Node>
															<Node id="69" score="0.2853288054466248">
																<SimplePredicate field="shower:width" operator="greaterThan" value="0.35395885"/>
															</Node>
														</Node>
														<Node id="70">
															<SimplePredicate field="shower:number_of_pixel" operator="greaterThan" value="52.5"/>
															<Node id="71" score="0.22759568970650434">
																<SimplePredicate field="shower:miss" operator="lessOrEqual" value="0.041876033"/>
															</Node>
															<Node id="72" score="0.38780433932940167">
																<SimplePredicate field="shower:miss" operator="greaterThan" value="0.041876033"/>
															</Node>
														</Node>
													</Node>
													<Node id="73">
														<SimplePredicate field="shower:number_of_pixel" operator="greaterThan" value="94.5"/>
														<Node id="74">
															<SimplePredicate field="shower:size" operator="lessOrEqual" value="2334.1782"/>
															<Node id="75" score="0.217320516705513">
																<SimplePredicate field="shower:skewness" operator="lessOrEqual" value="-0.28208664"/>
															</Node>
															<Node id="76" score="0.05847459617588255">
																<SimplePredicate field="shower:skewness" operator="greaterThan" value="-0.28208664"/>
															</Node>
														</Node>
														<Node id="77" score="0.26040157675743103">
															<SimplePredicate field="shower:size" operator="greaterThan" value="2334.1782"/>
														</Node>
													</Node>
												</Node>
												<Node id="78">
													<SimplePredicate field="shower:size" operator="greaterThan" value="2369.1045"/>
													<Node id="79">
														<SimplePredicate field="shower:length" operator="lessOrEqual" value="0.4003854"/>
														<Node id="80" score="0.4431573152542114">
															<SimplePredicate field="shower:kurtosis" operator="lessOrEqual" value="3.4679132"/>
														</Node>
														<Node id="81">
															<SimplePredicate field="shower:kurtosis" operator="greaterThan" value="3.4679132"/>
															<Node id="82" score="0.26183611154556274">
																<SimplePredicate field="array:num_triggered_telescopes" operator="lessOrEqual" value="4.5"/>
															</Node>
															<Node id="83" score="0.26040157675743103">
																<SimplePredicate field="array:num_triggered_telescopes" operator="greaterThan" value="4.5"/>
															</Node>
														</Node>
													</Node>
													<Node id="84" score="1.233999490737915">
														<SimplePredicate field="shower:length" operator="greaterThan" value="0.4003854"/>
													</Node>
												</Node>
											</Node>
											<Node id="85" score="0.6432890295982361">
												<SimplePredicate field="array:num_triggered_telescopes" operator="greaterThan" value="14"/>
											</Node>
										</Node>
										<Node id="86">
											<SimplePredicate field="shower:kurtosis" operator="greaterThan" value="3.8877342"/>
											<Node id="87">
												<SimplePredicate field="shower:length" operator="lessOrEqual" value="0.18524478"/>
												<Node id="88">
													<SimplePredicate field="shower:kurtosis" operator="lessOrEqual" value="7.1246133"/>
													<Node id="89">
														<SimplePredicate field="shower:number_of_pixel" operator="lessOrEqual" value="56"/>
														<Node id="90" score="0.26454979181289673">
															<SimplePredicate field="shower:width" operator="lessOrEqual" value="0.045060635"/>
														</Node>
														<Node id="91" score="0.26040157675743103">
															<SimplePredicate field="shower:width" operator="greaterThan" value="0.045060635"/>
														</Node>
													</Node>
													<Node id="92" score="0.2344430536031723">
														<SimplePredicate field="shower:number_of_pixel" operator="greaterThan" value="56"/>
													</Node>
												</Node>
												<Node id="93" score="0.17490212619304654">
													<SimplePredicate field="shower:kurtosis" operator="greaterThan" value="7.1246133"/>
												</Node>
											</Node>
											<Node id="94">
												<SimplePredicate field="shower:length" operator="greaterThan" value="0.18524478"/>
												<Node id="95">
													<SimplePredicate field="shower:number_of_pixel" operator="lessOrEqual" value="62"/>
													<Node id="96">
														<SimplePredicate field="shower:size" operator="lessOrEqual" value="565.4353"/>
														<Node id="97" score="0.03891606256365776">
															<SimplePredicate field="shower:skewness" operator="lessOrEqual" value="-1.2531152"/>
														</Node>
														<Node id="98">
															<SimplePredicate field="shower:skewness" operator="greaterThan" value="-1.2531152"/>
															<Node id="99" score="0.020328580960631372">
																<SimplePredicate field="shower:number_of_pixel" operator="lessOrEqual" value="29"/>
															</Node>
															<Node id="100" score="0.03891606256365776">
																<SimplePredicate field="shower:number_of_pixel" operator="greaterThan" value="29"/>
															</Node>
														</Node>
													</Node>
													<Node id="101">
														<SimplePredicate field="shower:size" operator="greaterThan" value="565.4353"/>
														<Node id="102">
															<SimplePredicate field="array:num_triggered_telescopes" operator="lessOrEqual" value="4.5"/>
															<Node id="103" score="0.053647753596305844">
																<SimplePredicate field="shower:kurtosis" operator="lessOrEqual" value="4.670428"/>
															</Node>
															<Node id="104" score="0.03849590124319429">
																<SimplePredicate field="shower:kurtosis" operator="greaterThan" value="4.670428"/>
															</Node>
														</Node>
														<Node id="105">
															<SimplePredicate field="array:num_triggered_telescopes" operator="greaterThan" value="4.5"/>
															<Node id="106" score="0.08810498118400574">
																<SimplePredicate field="shower:length" operator="lessOrEqual" value="0.3389811"/>
															</Node>
															<Node id="107" score="0.12491395510733128">
																<SimplePredicate field="shower:length" operator="greaterThan" value="0.3389811"/>
															</Node>
														</Node>
													</Node>
												</Node>
												<Node id="108">
													<SimplePredicate field="shower:number_of_pixel" operator="greaterThan" value="62"/>
													<Node id="109">
														<SimplePredicate field="shower:miss" operator="lessOrEqual" value="0.089804806"/>
														<Node id="110">
															<SimplePredicate field="shower:width" operator="lessOrEqual" value="0.2914359"/>
															<Node id="111" score="0.2507546693086624">
																<SimplePredicate field="shower:width" operator="lessOrEqual" value="0.2864226"/>
															</Node>
															<Node id="112" score="0.3480698764324188">
																<SimplePredicate field="shower:width" operator="greaterThan" value="0.2864226"/>
															</Node>
														</Node>
														<Node id="113">
															<SimplePredicate field="shower:width" operator="greaterThan" value="0.2914359"/>
															<Node id="114" score="0.29420414566993713">
																<SimplePredicate field="shower:size" operator="lessOrEqual" value="1542.7737"/>
															</Node>
															<Node id="115" score="0.1273044898857673">
																<SimplePredicate field="shower:size" operator="greaterThan" value="1542.7737"/>
															</Node>
														</Node>
													</Node>
													<Node id="116">
														<SimplePredicate field="shower:miss" operator="greaterThan" value="0.089804806"/>
														<Node id="117" score="0.29420414566993713">
															<SimplePredicate field="array:num_triggered_telescopes" operator="lessOrEqual" value="4.5"/>
														</Node>
														<Node id="118">
															<SimplePredicate field="array:num_triggered_telescopes" operator="greaterThan" value="4.5"/>
															<Node id="119" score="0.3480698764324188">
																<SimplePredicate field="shower:miss" operator="lessOrEqual" value="0.09895262"/>
															</Node>
															<Node id="120" score="0.40767157077789307">
																<SimplePredicate field="shower:miss" operator="greaterThan" value="0.09895262"/>
															</Node>
														</Node>
													</Node>
												</Node>
											</Node>
										</Node>
									</Node>
									<Node id="121">
										<SimplePredicate field="shower:size" operator="greaterThan" value="2623.7812"/>
										<Node id="122">
											<SimplePredicate field="shower:width" operator="lessOrEqual" value="0.2972564"/>
											<Node id="123">
												<SimplePredicate field="shower:number_of_pixel" operator="lessOrEqual" value="114.5"/>
												<Node id="124">
													<SimplePredicate field="shower:kurtosis" operator="lessOrEqual" value="5.9961596"/>
													<Node id="125" score="0.40767157077789307">
														<SimplePredicate field="shower:number_of_pixel" operator="lessOrEqual" value="91"/>
													</Node>
													<Node id="126">
														<SimplePredicate field="shower:number_of_pixel" operator="greaterThan" value="91"/>
														<Node id="127" score="0.21919335424900052">
															<SimplePredicate field="shower:width" operator="lessOrEqual" value="0.28138041"/>
														</Node>
														<Node id="128" score="0.17668165266513824">
															<SimplePredicate field="shower:width" operator="greaterThan" value="0.28138041"/>
														</Node>
													</Node>
												</Node>
												<Node id="129">
													<SimplePredicate field="shower:kurtosis" operator="greaterThan" value="5.9961596"/>
													<Node id="130" score="0.6432890295982361">
														<SimplePredicate field="shower:skewness" operator="lessOrEqual" value="-0.9956809"/>
													</Node>
													<Node id="131">
														<SimplePredicate field="shower:skewness" operator="greaterThan" value="-0.9956809"/>
														<Node id="132" score="0.40767157077789307">
															<SimplePredicate field="shower:kurtosis" operator="lessOrEqual" value="8.330334"/>
														</Node>
														<Node id="133">
															<SimplePredicate field="shower:kurtosis" operator="greaterThan" value="8.330334"/>
															<Node id="134" score="0.29420414566993713">
																<SimplePredicate field="shower:miss" operator="lessOrEqual" value="0.012545623"/>
															</Node>
															<Node id="135" score="0.26040157675743103">
																<SimplePredicate field="shower:miss" operator="greaterThan" value="0.012545623"/>
															</Node>
														</Node>
													</Node>
												</Node>
											</Node>
											<Node id="136">
												<SimplePredicate field="shower:number_of_pixel" operator="greaterThan" value="114.5"/>
												<Node id="137">
													<SimplePredicate field="shower:miss" operator="lessOrEqual" value="0.0197811"/>
													<Node id="138" score="0.6432890295982361">
														<SimplePredicate field="shower:width" operator="lessOrEqual" value="0.1837006"/>
													</Node>
													<Node id="139" score="2.355084180831909">
														<SimplePredicate field="shower:width" operator="greaterThan" value="0.1837006"/>
													</Node>
												</Node>
												<Node id="140">
													<SimplePredicate field="shower:miss" operator="greaterThan" value="0.0197811"/>
													<Node id="141">
														<SimplePredicate field="shower:miss" operator="lessOrEqual" value="0.050283983"/>
														<Node id="142">
															<SimplePredicate field="shower:width" operator="lessOrEqual" value="0.28655797"/>
															<Node id="143" score="0.40767157077789307">
																<SimplePredicate field="shower:miss" operator="lessOrEqual" value="0.029952455"/>
															</Node>
															<Node id="144" score="0.26454979181289673">
																<SimplePredicate field="shower:miss" operator="greaterThan" value="0.029952455"/>
															</Node>
														</Node>
														<Node id="145" score="0.2290446609258652">
															<SimplePredicate field="shower:width" operator="greaterThan" value="0.28655797"/>
														</Node>
													</Node>
													<Node id="146" score="1.033503532409668">
														<SimplePredicate field="shower:miss" operator="greaterThan" value="0.050283983"/>
													</Node>
												</Node>
											</Node>
										</Node>
										<Node id="147">
											<SimplePredicate field="shower:width" operator="greaterThan" value="0.2972564"/>
											<Node id="148" score="0.7616912722587585">
												<SimplePredicate field="shower:kurtosis" operator="lessOrEqual" value="3.6132154"/>
											</Node>
											<Node id="149">
												<SimplePredicate field="shower:kurtosis" operator="greaterThan" value="3.6132154"/>
												<Node id="150">
													<SimplePredicate field="shower:number_of_pixel" operator="lessOrEqual" value="134.5"/>
													<Node id="151">
														<SimplePredicate field="array:num_triggered_telescopes" operator="lessOrEqual" value="14"/>
														<Node id="152">
															<SimplePredicate field="array:num_triggered_telescopes" operator="lessOrEqual" value="6.5"/>
															<Node id="153" score="0.07918689399957657">
																<SimplePredicate field="array:num_triggered_telescopes" operator="lessOrEqual" value="5.5"/>
															</Node>
															<Node id="154" score="0.16461054980754852">
																<SimplePredicate field="array:num_triggered_telescopes" operator="greaterThan" value="5.5"/>
															</Node>
														</Node>
														<Node id="155">
															<SimplePredicate field="array:num_triggered_telescopes" operator="greaterThan" value="6.5"/>
															<Node id="156" score="0.20797838057790483">
																<SimplePredicate field="shower:width" operator="lessOrEqual" value="0.31408745"/>
															</Node>
															<Node id="157" score="0.2667775271194322">
																<SimplePredicate field="shower:width" operator="greaterThan" value="0.31408745"/>
															</Node>
														</Node>
													</Node>
													<Node id="158" score="0.6432890295982361">
														<SimplePredicate field="array:num_triggered_telescopes" operator="greaterThan" value="14"/>
													</Node>
												</Node>
												<Node id="159">
													<SimplePredicate field="shower:number_of_pixel" operator="greaterThan" value="134.5"/>
													<Node id="160" score="0.6432890295982361">
														<SimplePredicate field="shower:number_of_pixel" operator="lessOrEqual" value="135.5"/>
													</Node>
													<Node id="161">
														<SimplePredicate field="shower:number_of_pixel" operator="greaterThan" value="135.5"/>
														<Node id="162" score="0.4431573152542114">
															<SimplePredicate field="shower:size" operator="lessOrEqual" value="2738.011"/>
														</Node>
														<Node id="163" score="0.29420414566993713">
															<SimplePredicate field="shower:size" operator="greaterThan" value="2738.011"/>
														</Node>
													</Node>
												</Node>
											</Node>
										</Node>
									</Node>
								</Node>
								<Node id="164">
									<SimplePredicate field="shower:number_of_pixel" operator="greaterThan" value="138.5"/>
									<Node id="165">
										<SimplePredicate field="shower:width" operator="lessOrEqual" value="0.31174266"/>
										<Node id="166">
											<SimplePredicate field="shower:length" operator="lessOrEqual" value="0.33005804"/>
											<Node id="167" score="1.233999490737915">
												<SimplePredicate field="shower:size" operator="lessOrEqual" value="4005.4175"/>
											</Node>
											<Node id="168" score="1.033503532409668">
												<SimplePredicate field="shower:size" operator="greaterThan" value="4005.4175"/>
											</Node>
										</Node>
										<Node id="169" score="2.355084180831909">
											<SimplePredicate field="shower:length" operator="greaterThan" value="0.33005804"/>
										</Node>
									</Node>
									<Node id="170">
										<SimplePredicate field="shower:width" operator="greaterThan" value="0.31174266"/>
										<Node id="171">
											<SimplePredicate field="shower:size" operator="lessOrEqual" value="3127.6165"/>
											<Node id="172" score="1.233999490737915">
												<SimplePredicate field="shower:kurtosis" operator="lessOrEqual" value="3.6463568"/>
											</Node>
											<Node id="173">
												<SimplePredicate field="shower:kurtosis" operator="greaterThan" value="3.6463568"/>
												<Node id="174">
													<SimplePredicate field="shower:skewness" operator="lessOrEqual" value="-0.03606629"/>
													<Node id="175" score="0.26040157675743103">
														<SimplePredicate field="shower:number_of_pixel" operator="lessOrEqual" value="140.5"/>
													</Node>
													<Node id="176" score="0.2552182972431183">
														<SimplePredicate field="shower:number_of_pixel" operator="greaterThan" value="140.5"/>
													</Node>
												</Node>
												<Node id="177" score="0.6432890295982361">
													<SimplePredicate field="shower:skewness" operator="greaterThan" value="-0.03606629"/>
												</Node>
											</Node>
										</Node>
										<Node id="178">
											<SimplePredicate field="shower:size" operator="greaterThan" value="3127.6165"/>
											<Node id="179" score="0.40767157077789307">
												<SimplePredicate field="array:num_triggered_telescopes" operator="lessOrEqual" value="5.5"/>
											</Node>
											<Node id="180">
												<SimplePredicate field="array:num_triggered_telescopes" operator="greaterThan" value="5.5"/>
												<Node id="181">
													<SimplePredicate field="shower:miss" operator="lessOrEqual" value="0.016920635"/>
													<Node id="182" score="0.26040157675743103">
														<SimplePredicate field="shower:size" operator="lessOrEqual" value="3378.602"/>
													</Node>
													<Node id="183" score="0.29420414566993713">
														<SimplePredicate field="shower:size" operator="greaterThan" value="3378.602"/>
													</Node>
												</Node>
												<Node id="184">
													<SimplePredicate field="shower:miss" operator="greaterThan" value="0.016920635"/>
													<Node id="185" score="0.17490212619304654">
														<SimplePredicate field="shower:skewness" operator="lessOrEqual" value="-0.036228657"/>
													</Node>
													<Node id="186" score="0.13192306458950046">
														<SimplePredicate field="shower:skewness" operator="greaterThan" value="-0.036228657"/>
													</Node>
												</Node>
											</Node>
										</Node>
									</Node>
								</Node>
							</Node>
						</Node>
						<Node id="187">
							<SimplePredicate field="array:num_triggered_telescopes" operator="greaterThan" value="17.5"/>
							<Node id="188">
								<SimplePredicate field="array:num_triggered_telescopes" operator="lessOrEqual" value="19.5"/>
								<Node id="189" score="2.090883731842041">
									<SimplePredicate field="shower:kurtosis" operator="lessOrEqual" value="3.4735417"/>
								</Node>
								<Node id="190">
									<SimplePredicate field="shower:kurtosis" operator="greaterThan" value="3.4735417"/>
									<Node id="191">
										<SimplePredicate field="shower:miss" operator="lessOrEqual" value="0.047906972"/>
										<Node id="192">
											<SimplePredicate field="shower:length" operator="lessOrEqual" value="0.2853285"/>
											<Node id="193">
												<SimplePredicate field="shower:length" operator="lessOrEqual" value="0.19902557"/>
												<Node id="194" score="1.033503532409668">
													<SimplePredicate field="shower:length" operator="lessOrEqual" value="0.1426704"/>
												</Node>
												<Node id="195">
													<SimplePredicate field="shower:length" operator="greaterThan" value="0.1426704"/>
													<Node id="196" score="1.033503532409668">
														<SimplePredicate field="shower:width" operator="lessOrEqual" value="0.117697105"/>
													</Node>
													<Node id="197" score="2.090883731842041">
														<SimplePredicate field="shower:width" operator="greaterThan" value="0.117697105"/>
													</Node>
												</Node>
											</Node>
											<Node id="198" score="2.090883731842041">
												<SimplePredicate field="shower:length" operator="greaterThan" value="0.19902557"/>
											</Node>
										</Node>
										<Node id="199">
											<SimplePredicate field="shower:length" operator="greaterThan" value="0.2853285"/>
											<Node id="200" score="1.033503532409668">
												<SimplePredicate field="shower:length" operator="lessOrEqual" value="0.40168634"/>
											</Node>
											<Node id="201">
												<SimplePredicate field="shower:length" operator="greaterThan" value="0.40168634"/>
												<Node id="202" score="1.033503532409668">
													<SimplePredicate field="shower:number_of_pixel" operator="lessOrEqual" value="116"/>
												</Node>
												<Node id="203" score="2.090883731842041">
													<SimplePredicate field="shower:number_of_pixel" operator="greaterThan" value="116"/>
												</Node>
											</Node>
										</Node>
									</Node>
									<Node id="204">
										<SimplePredicate field="shower:miss" operator="greaterThan" value="0.047906972"/>
										<Node id="205" score="2.090883731842041">
											<SimplePredicate field="shower:skewness" operator="lessOrEqual" value="0.2507367"/>
										</Node>
										<Node id="206" score="1.033503532409668">
											<SimplePredicate field="shower:skewness" operator="greaterThan" value="0.2507367"/>
										</Node>
									</Node>
								</Node>
							</Node>
							<Node id="207" score="3.4900226593017583">
								<SimplePredicate field="array:num_triggered_telescopes" operator="greaterThan" value="19.5"/>
							</Node>
						</Node>
					</Node>
				</TreeModel>
			</Segment>
			<Segment id="4">
				<True/>
				<TreeModel functionName="regression" splitCharacteristic="binarySplit">
					<MiningSchema>
						<MiningField name="shower:number_of_pixel"/>
						<MiningField name="shower:width"/>
						<MiningField name="shower:length"/>
						<MiningField name="shower:skewness"/>
						<MiningField name="shower:kurtosis"/>
						<MiningField name="shower:miss"/>
						<MiningField name="shower:size"/>
						<MiningField name="array:num_triggered_telescopes"/>
					</MiningSchema>
					<Node id="1">
						<True/>
						<Node id="2">
							<SimplePredicate field="shower:length" operator="lessOrEqual" value="0.25809383"/>
							<Node id="3">
								<SimplePredicate field="array:num_triggered_telescopes" operator="lessOrEqual" value="19.5"/>
								<Node id="4">
									<SimplePredicate field="shower:miss" operator="lessOrEqual" value="3.3604173E-4"/>
									<Node id="5" score="3.4900226593017583">
										<SimplePredicate field="shower:miss" operator="lessOrEqual" value="2.0893887E-5"/>
									</Node>
									<Node id="6">
										<SimplePredicate field="shower:miss" operator="greaterThan" value="2.0893887E-5"/>
										<Node id="7">
											<SimplePredicate field="array:num_triggered_telescopes" operator="lessOrEqual" value="9"/>
											<Node id="8">
												<SimplePredicate field="shower:miss" operator="lessOrEqual" value="1.4042697E-4"/>
												<Node id="9">
													<SimplePredicate field="shower:kurtosis" operator="lessOrEqual" value="6.2658815"/>
													<Node id="10">
														<SimplePredicate field="shower:miss" operator="lessOrEqual" value="1.1694647E-4"/>
														<Node id="11">
															<SimplePredicate field="shower:width" operator="lessOrEqual" value="0.001969432"/>
															<Node id="12" score="2.355084180831909">
																<SimplePredicate field="shower:kurtosis" operator="lessOrEqual" value="2.6965826"/>
															</Node>
															<Node id="13" score="1.0836275219917297">
																<SimplePredicate field="shower:kurtosis" operator="greaterThan" value="2.6965826"/>
															</Node>
														</Node>
														<Node id="14">
															<SimplePredicate field="shower:width" operator="greaterThan" value="0.001969432"/>
															<Node id="15" score="1.033503532409668">
																<SimplePredicate field="shower:number_of_pixel" operator="lessOrEqual" value="10.5"/>
															</Node>
															<Node id="16" score="0.7616912722587585">
																<SimplePredicate field="shower:number_of_pixel" operator="greaterThan" value="10.5"/>
															</Node>
														</Node>
													</Node>
													<Node id="17">
														<SimplePredicate field="shower:miss" operator="greaterThan" value="1.1694647E-4"/>
														<Node id="18" score="2.090883731842041">
															<SimplePredicate field="shower:number_of_pixel" operator="lessOrEqual" value="13.5"/>
														</Node>
														<Node id="19" score="2.355084180831909">
															<SimplePredicate field="shower:number_of_pixel" operator="greaterThan" value="13.5"/>
														</Node>
													</Node>
												</Node>
												<Node id="20">
													<SimplePredicate field="shower:kurtosis" operator="greaterThan" value="6.2658815"/>
													<Node id="21" score="0.40767157077789307">
														<SimplePredicate field="array:num_triggered_telescopes" operator="lessOrEqual" value="6.5"/>
													</Node>
													<Node id="22" score="1.233999490737915">
														<SimplePredicate field="array:num_triggered_telescopes" operator="greaterThan" value="6.5"/>
													</Node>
												</Node>
											</Node>
											<Node id="23">
												<SimplePredicate field="shower:miss" operator="greaterThan" value="1.4042697E-4"/>
												<Node id="24">
													<SimplePredicate field="shower:miss" operator="lessOrEqual" value="3.045468E-4"/>
													<Node id="25" score="1.233999490737915">
														<SimplePredicate field="shower:kurtosis" operator="lessOrEqual" value="2.2207322"/>
													</Node>
													<Node id="26">
														<SimplePredicate field="shower:kurtosis" operator="greaterThan" value="2.2207322"/>
														<Node id="27">
															<SimplePredicate field="shower:length" operator="lessOrEqual" value="0.007940644"/>
															<Node id="28" score="0.31421779096126556">
																<SimplePredicate field="shower:number_of_pixel" operator="lessOrEqual" value="8.5"/>
															</Node>
															<Node id="29" score="0.7293902039527893">
																<SimplePredicate field="shower:number_of_pixel" operator="greaterThan" value="8.5"/>
															</Node>
														</Node>
														<Node id="30">
															<SimplePredicate field="shower:length" operator="greaterThan" value="0.007940644"/>
															<Node id="31" score="0.3797502517700195">
																<SimplePredicate field="shower:number_of_pixel" operator="lessOrEqual" value="5.5"/>
															</Node>
															<Node id="32" score="0.7616912722587585">
																<SimplePredicate field="shower:number_of_pixel" operator="greaterThan" value="5.5"/>
															</Node>
														</Node>
													</Node>
												</Node>
												<Node id="33" score="1.033503532409668">
													<SimplePredicate field="shower:miss" operator="greaterThan" value="3.045468E-4"/>
												</Node>
											</Node>
										</Node>
										<Node id="34">
											<SimplePredicate field="array:num_triggered_telescopes" operator="greaterThan" value="9"/>
											<Node id="35">
												<SimplePredicate field="shower:number_of_pixel" operator="lessOrEqual" value="8.5"/>
												<Node id="36" score="2.090883731842041">
													<SimplePredicate field="shower:miss" operator="lessOrEqual" value="2.515547E-4"/>
												</Node>
												<Node id="37" score="2.355084180831909">
													<SimplePredicate field="shower:miss" operator="greaterThan" value="2.515547E-4"/>
												</Node>
											</Node>
											<Node id="38" score="2.355084180831909">
												<SimplePredicate field="shower:number_of_pixel" operator="greaterThan" value="8.5"/>
											</Node>
										</Node>
									</Node>
								</Node>
								<Node id="39">
									<SimplePredicate field="shower:miss" operator="greaterThan" value="3.3604173E-4"/>
									<Node id="40">
										<SimplePredicate field="shower:number_of_pixel" operator="lessOrEqual" value="146"/>
										<Node id="41">
											<SimplePredicate field="array:num_triggered_telescopes" operator="lessOrEqual" value="17.5"/>
											<Node id="42">
												<SimplePredicate field="shower:miss" operator="lessOrEqual" value="0.0015847805"/>
												<Node id="43">
													<SimplePredicate field="shower:number_of_pixel" operator="lessOrEqual" value="7.5"/>
													<Node id="44">
														<SimplePredicate field="shower:width" operator="lessOrEqual" value="0.0028402358"/>
														<Node id="45">
															<SimplePredicate field="shower:size" operator="lessOrEqual" value="81.89308"/>
															<Node id="46" score="0.20432299375534055">
																<SimplePredicate field="shower:kurtosis" operator="lessOrEqual" value="4.004301"/>
															</Node>
															<Node id="47" score="0.26040157675743103">
																<SimplePredicate field="shower:kurtosis" operator="greaterThan" value="4.004301"/>
															</Node>
														</Node>
														<Node id="48">
															<SimplePredicate field="shower:size" operator="greaterThan" value="81.89308"/>
															<Node id="49" score="0.3797502517700195">
																<SimplePredicate field="shower:number_of_pixel" operator="lessOrEqual" value="4.5"/>
															</Node>
															<Node id="50" score="0.4012019634246826">
																<SimplePredicate field="shower:number_of_pixel" operator="greaterThan" value="4.5"/>
															</Node>
														</Node>
													</Node>
													<Node id="51" score="0.7293902039527893">
														<SimplePredicate field="shower:width" operator="greaterThan" value="0.0028402358"/>
													</Node>
												</Node>
												<Node id="52">
													<SimplePredicate field="shower:number_of_pixel" operator="greaterThan" value="7.5"/>
													<Node id="53" score="0.7616912722587585">
														<SimplePredicate field="shower:miss" operator="lessOrEqual" value="4.5498068E-4"/>
													</Node>
													<Node id="54">
														<SimplePredicate field="shower:miss" operator="greaterThan" value="4.5498068E-4"/>
														<Node id="55" score="1.233999490737915">
															<SimplePredicate field="array:num_triggered_telescopes" operator="lessOrEqual" value="8.5"/>
														</Node>
														<Node id="56" score="1.033503532409668">
															<SimplePredicate field="array:num_triggered_telescopes" operator="greaterThan" value="8.5"/>
														</Node>
													</Node>
												</Node>
											</Node>
											<Node id="57">
												<SimplePredicate field="shower:miss" operator="greaterThan" value="0.0015847805"/>
												<Node id="58">
													<SimplePredicate field="shower:miss" operator="lessOrEqual" value="0.04847997"/>
													<Node id="59">
														<SimplePredicate field="shower:miss" operator="lessOrEqual" value="0.03767933"/>
														<Node id="60">
															<SimplePredicate field="shower:skewness" operator="lessOrEqual" value="2.1085413"/>
															<Node id="61" score="0.12458910917242368">
																<SimplePredicate field="shower:number_of_pixel" operator="lessOrEqual" value="44"/>
															</Node>
															<Node id="62" score="0.2442325409501791">
																<SimplePredicate field="shower:number_of_pixel" operator="greaterThan" value="44"/>
															</Node>
														</Node>
														<Node id="63">
															<SimplePredicate field="shower:skewness" operator="greaterThan" value="2.1085413"/>
															<Node id="64" score="0.4431573152542114">
																<SimplePredicate field="shower:length" operator="lessOrEqual" value="0.025527585"/>
															</Node>
															<Node id="65" score="0.40767157077789307">
																<SimplePredicate field="shower:length" operator="greaterThan" value="0.025527585"/>
															</Node>
														</Node>
													</Node>
													<Node id="66" score="0.6432890295982361">
														<SimplePredicate field="shower:miss" operator="greaterThan" value="0.03767933"/>
													</Node>
												</Node>
												<Node id="67">
													<SimplePredicate field="shower:miss" operator="greaterThan" value="0.04847997"/>
													<Node id="68">
														<SimplePredicate field="shower:number_of_pixel" operator="lessOrEqual" value="46.5"/>
														<Node id="69" score="0.04664265364408493">
															<SimplePredicate field="shower:kurtosis" operator="lessOrEqual" value="10.695355"/>
														</Node>
														<Node id="70" score="0.05463675409555435">
															<SimplePredicate field="shower:kurtosis" operator="greaterThan" value="10.695355"/>
														</Node>
													</Node>
													<Node id="71" score="0.07918689399957657">
														<SimplePredicate field="shower:number_of_pixel" operator="greaterThan" value="46.5"/>
													</Node>
												</Node>
											</Node>
										</Node>
										<Node id="72">
											<SimplePredicate field="array:num_triggered_telescopes" operator="greaterThan" value="17.5"/>
											<Node id="73" score="2.090883731842041">
												<SimplePredicate field="shower:size" operator="lessOrEqual" value="3359.5537"/>
											</Node>
