<?xml version="1.0" encoding="UTF-8" standalone="yes"?>
<PMML xmlns="http://www.dmg.org/PMML-4_3" version="4.3">
	<Header>
		<Application name="JPMML-SkLearn" version="1.2.8"/>
		<Timestamp>2017-03-01T09:11:46Z</Timestamp>
	</Header>
	<DataDictionary>
		<DataField name="label" optype="categorical" dataType="integer">
			<Value value="0"/>
			<Value value="1"/>
		</DataField>
		<DataField name="shower:number_of_pixel" optype="continuous" dataType="float"/>
		<DataField name="shower:width" optype="continuous" dataType="float"/>
		<DataField name="shower:length" optype="continuous" dataType="float"/>
		<DataField name="shower:skewness" optype="continuous" dataType="float"/>
		<DataField name="shower:kurtosis" optype="continuous" dataType="float"/>
		<DataField name="shower:miss" optype="continuous" dataType="float"/>
		<DataField name="shower:size" optype="continuous" dataType="float"/>
		<DataField name="array:num_triggered_telescopes" optype="continuous" dataType="float"/>
	</DataDictionary>
	<MiningModel functionName="classification">
		<MiningSchema>
			<MiningField name="label" usageType="target"/>
			<MiningField name="shower:length"/>
			<MiningField name="shower:size"/>
			<MiningField name="shower:skewness"/>
			<MiningField name="array:num_triggered_telescopes"/>
			<MiningField name="shower:width"/>
			<MiningField name="shower:number_of_pixel"/>
			<MiningField name="shower:kurtosis"/>
			<MiningField name="shower:miss"/>
		</MiningSchema>
		<Output>
			<OutputField name="probability_0" optype="continuous" dataType="double" feature="probability" value="0"/>
			<OutputField name="probability_1" optype="continuous" dataType="double" feature="probability" value="1"/>
		</Output>
		<Segmentation multipleModelMethod="average">
			<Segment id="1">
				<True/>
				<TreeModel functionName="classification" splitCharacteristic="binarySplit">
					<MiningSchema>
						<MiningField name="shower:number_of_pixel"/>
						<MiningField name="shower:width"/>
						<MiningField name="shower:length"/>
						<MiningField name="shower:skewness"/>
						<MiningField name="shower:kurtosis"/>
						<MiningField name="shower:miss"/>
						<MiningField name="shower:size"/>
						<MiningField name="array:num_triggered_telescopes"/>
					</MiningSchema>
					<Node id="1">
						<True/>
						<Node id="2">
							<SimplePredicate field="shower:length" operator="lessOrEqual" value="0.40946096"/>
							<Node id="3">
								<SimplePredicate field="shower:kurtosis" operator="lessOrEqual" value="4.083823"/>
								<Node id="4">
									<SimplePredicate field="shower:width" operator="lessOrEqual" value="0.0022763503"/>
									<Node id="5">
										<SimplePredicate field="shower:miss" operator="lessOrEqual" value="1.3723814E-4"/>
										<Node id="6">
											<SimplePredicate field="shower:size" operator="lessOrEqual" value="66.63294"/>
											<Node id="7">
												<SimplePredicate field="shower:miss" operator="lessOrEqual" value="2.3395116E-5"/>
												<Node id="8" score="0" recordCount="1.0">
													<SimplePredicate field="shower:size" operator="lessOrEqual" value="34.668068"/>
													<ScoreDistribution value="0" recordCount="1.0"/>
													<ScoreDistribution value="1" recordCount="0.0"/>
												</Node>
												<Node id="9">
													<SimplePredicate field="shower:size" operator="greaterThan" value="34.668068"/>
													<Node id="10" score="1" recordCount="3.0">
														<SimplePredicate field="shower:miss" operator="lessOrEqual" value="1.8658182E-5"/>
														<ScoreDistribution value="0" recordCount="0.0"/>
														<ScoreDistribution value="1" recordCount="3.0"/>
													</Node>
													<Node id="11">
														<SimplePredicate field="shower:miss" operator="greaterThan" value="1.8658182E-5"/>
														<Node id="12" score="1" recordCount="1.0">
															<SimplePredicate field="shower:length" operator="lessOrEqual" value="0.04062603"/>
															<ScoreDistribution value="0" recordCount="0.0"/>
															<ScoreDistribution value="1" recordCount="1.0"/>
														</Node>
														<Node id="13" score="0" recordCount="1.0">
															<SimplePredicate field="shower:length" operator="greaterThan" value="0.04062603"/>
															<ScoreDistribution value="0" recordCount="1.0"/>
															<ScoreDistribution value="1" recordCount="0.0"/>
														</Node>
													</Node>
												</Node>
											</Node>
											<Node id="14">
												<SimplePredicate field="shower:miss" operator="greaterThan" value="2.3395116E-5"/>
												<Node id="15" score="1" recordCount="3.0">
													<SimplePredicate field="shower:width" operator="lessOrEqual" value="4.130467E-4"/>
													<ScoreDistribution value="0" recordCount="0.0"/>
													<ScoreDistribution value="1" recordCount="3.0"/>
												</Node>
												<Node id="16">
													<SimplePredicate field="shower:width" operator="greaterThan" value="4.130467E-4"/>
													<Node id="17">
														<SimplePredicate field="array:num_triggered_telescopes" operator="lessOrEqual" value="12.5"/>
														<Node id="18" score="1" recordCount="1.0">
															<SimplePredicate field="shower:length" operator="lessOrEqual" value="0.008287463"/>
															<ScoreDistribution value="0" recordCount="0.0"/>
															<ScoreDistribution value="1" recordCount="1.0"/>
														</Node>
														<Node id="19" score="0" recordCount="14.0">
															<SimplePredicate field="shower:length" operator="greaterThan" value="0.008287463"/>
															<ScoreDistribution value="0" recordCount="14.0"/>
															<ScoreDistribution value="1" recordCount="0.0"/>
														</Node>
													</Node>
													<Node id="20" score="1" recordCount="1.0">
														<SimplePredicate field="array:num_triggered_telescopes" operator="greaterThan" value="12.5"/>
														<ScoreDistribution value="0" recordCount="0.0"/>
														<ScoreDistribution value="1" recordCount="1.0"/>
													</Node>
												</Node>
											</Node>
										</Node>
										<Node id="21" score="1" recordCount="7.0">
											<SimplePredicate field="shower:size" operator="greaterThan" value="66.63294"/>
											<ScoreDistribution value="0" recordCount="0.0"/>
											<ScoreDistribution value="1" recordCount="7.0"/>
										</Node>
									</Node>
									<Node id="22" score="1" recordCount="35.0">
										<SimplePredicate field="shower:miss" operator="greaterThan" value="1.3723814E-4"/>
										<ScoreDistribution value="0" recordCount="0.0"/>
										<ScoreDistribution value="1" recordCount="35.0"/>
									</Node>
								</Node>
								<Node id="23">
									<SimplePredicate field="shower:width" operator="greaterThan" value="0.0022763503"/>
									<Node id="24">
										<SimplePredicate field="shower:kurtosis" operator="lessOrEqual" value="3.1587458"/>
										<Node id="25">
											<SimplePredicate field="shower:miss" operator="lessOrEqual" value="0.0081052855"/>
											<Node id="26">
												<SimplePredicate field="shower:miss" operator="lessOrEqual" value="5.836718E-4"/>
												<Node id="27" score="0" recordCount="21.0">
													<SimplePredicate field="shower:kurtosis" operator="lessOrEqual" value="2.6147847"/>
													<ScoreDistribution value="0" recordCount="21.0"/>
													<ScoreDistribution value="1" recordCount="0.0"/>
												</Node>
												<Node id="28">
													<SimplePredicate field="shower:kurtosis" operator="greaterThan" value="2.6147847"/>
													<Node id="29" score="1" recordCount="2.0">
														<SimplePredicate field="shower:length" operator="lessOrEqual" value="0.02066906"/>
														<ScoreDistribution value="0" recordCount="0.0"/>
														<ScoreDistribution value="1" recordCount="2.0"/>
													</Node>
													<Node id="30" score="0" recordCount="2.0">
														<SimplePredicate field="shower:length" operator="greaterThan" value="0.02066906"/>
														<ScoreDistribution value="0" recordCount="2.0"/>
														<ScoreDistribution value="1" recordCount="0.0"/>
													</Node>
												</Node>
											</Node>
											<Node id="31" score="0" recordCount="49.0">
												<SimplePredicate field="shower:miss" operator="greaterThan" value="5.836718E-4"/>
												<ScoreDistribution value="0" recordCount="49.0"/>
												<ScoreDistribution value="1" recordCount="0.0"/>
											</Node>
										</Node>
										<Node id="32">
											<SimplePredicate field="shower:miss" operator="greaterThan" value="0.0081052855"/>
											<Node id="33" score="1" recordCount="3.0">
												<SimplePredicate field="shower:length" operator="lessOrEqual" value="0.015225978"/>
												<ScoreDistribution value="0" recordCount="0.0"/>
												<ScoreDistribution value="1" recordCount="3.0"/>
											</Node>
											<Node id="34">
												<SimplePredicate field="shower:length" operator="greaterThan" value="0.015225978"/>
												<Node id="35">
													<SimplePredicate field="array:num_triggered_telescopes" operator="lessOrEqual" value="16.5"/>
													<Node id="36">
														<SimplePredicate field="shower:size" operator="lessOrEqual" value="828.8561"/>
														<Node id="37" score="0" recordCount="6.0">
															<SimplePredicate field="shower:miss" operator="lessOrEqual" value="0.026612744"/>
															<ScoreDistribution value="0" recordCount="6.0"/>
															<ScoreDistribution value="1" recordCount="0.0"/>
														</Node>
														<Node id="38" score="1" recordCount="3.0">
															<SimplePredicate field="shower:miss" operator="greaterThan" value="0.026612744"/>
															<ScoreDistribution value="0" recordCount="0.0"/>
															<ScoreDistribution value="1" recordCount="3.0"/>
														</Node>
													</Node>
													<Node id="39" score="0" recordCount="19.0">
														<SimplePredicate field="shower:size" operator="greaterThan" value="828.8561"/>
														<ScoreDistribution value="0" recordCount="19.0"/>
														<ScoreDistribution value="1" recordCount="0.0"/>
													</Node>
												</Node>
												<Node id="40">
													<SimplePredicate field="array:num_triggered_telescopes" operator="greaterThan" value="16.5"/>
													<Node id="41" score="0" recordCount="2.0">
														<SimplePredicate field="shower:length" operator="lessOrEqual" value="0.26291567"/>
														<ScoreDistribution value="0" recordCount="2.0"/>
														<ScoreDistribution value="1" recordCount="0.0"/>
													</Node>
													<Node id="42" score="1" recordCount="4.0">
														<SimplePredicate field="shower:length" operator="greaterThan" value="0.26291567"/>
														<ScoreDistribution value="0" recordCount="0.0"/>
														<ScoreDistribution value="1" recordCount="4.0"/>
													</Node>
												</Node>
											</Node>
										</Node>
									</Node>
									<Node id="43">
										<SimplePredicate field="shower:kurtosis" operator="greaterThan" value="3.1587458"/>
										<Node id="44" score="1" recordCount="11.0">
											<SimplePredicate field="shower:miss" operator="lessOrEqual" value="0.0010667343"/>
											<ScoreDistribution value="0" recordCount="0.0"/>
											<ScoreDistribution value="1" recordCount="11.0"/>
										</Node>
										<Node id="45">
											<SimplePredicate field="shower:miss" operator="greaterThan" value="0.0010667343"/>
											<Node id="46">
												<SimplePredicate field="shower:size" operator="lessOrEqual" value="2250.494"/>
												<Node id="47" score="0" recordCount="9.0">
													<SimplePredicate field="shower:width" operator="lessOrEqual" value="0.07291243"/>
													<ScoreDistribution value="0" recordCount="9.0"/>
													<ScoreDistribution value="1" recordCount="0.0"/>
												</Node>
												<Node id="48">
													<SimplePredicate field="shower:width" operator="greaterThan" value="0.07291243"/>
													<Node id="49">
														<SimplePredicate field="array:num_triggered_telescopes" operator="lessOrEqual" value="7.5"/>
														<Node id="50">
															<SimplePredicate field="shower:number_of_pixel" operator="lessOrEqual" value="32.5"/>
															<Node id="51" score="1" recordCount="10.0">
																<SimplePredicate field="shower:miss" operator="lessOrEqual" value="0.092197284"/>
																<ScoreDistribution value="0" recordCount="0.0"/>
																<ScoreDistribution value="1" recordCount="10.0"/>
															</Node>
															<Node id="52" score="1" recordCount="5.0">
																<SimplePredicate field="shower:miss" operator="greaterThan" value="0.092197284"/>
																<ScoreDistribution value="0" recordCount="1.0"/>
																<ScoreDistribution value="1" recordCount="4.0"/>
															</Node>
														</Node>
														<Node id="53">
															<SimplePredicate field="shower:number_of_pixel" operator="greaterThan" value="32.5"/>
															<Node id="54" score="1" recordCount="35.0">
																<SimplePredicate field="shower:width" operator="lessOrEqual" value="0.34241375"/>
																<ScoreDistribution value="0" recordCount="12.0"/>
																<ScoreDistribution value="1" recordCount="23.0"/>
															</Node>
															<Node id="55" score="0" recordCount="26.0">
																<SimplePredicate field="shower:width" operator="greaterThan" value="0.34241375"/>
																<ScoreDistribution value="0" recordCount="18.0"/>
																<ScoreDistribution value="1" recordCount="8.0"/>
															</Node>
														</Node>
													</Node>
													<Node id="56">
														<SimplePredicate field="array:num_triggered_telescopes" operator="greaterThan" value="7.5"/>
														<Node id="57">
															<SimplePredicate field="shower:miss" operator="lessOrEqual" value="0.008814059"/>
															<Node id="58" score="0" recordCount="2.0">
																<SimplePredicate field="array:num_triggered_telescopes" operator="lessOrEqual" value="13"/>
																<ScoreDistribution value="0" recordCount="2.0"/>
																<ScoreDistribution value="1" recordCount="0.0"/>
															</Node>
															<Node id="59" score="1" recordCount="3.0">
																<SimplePredicate field="array:num_triggered_telescopes" operator="greaterThan" value="13"/>
																<ScoreDistribution value="0" recordCount="0.0"/>
																<ScoreDistribution value="1" recordCount="3.0"/>
															</Node>
														</Node>
														<Node id="60" score="1" recordCount="24.0">
															<SimplePredicate field="shower:miss" operator="greaterThan" value="0.008814059"/>
															<ScoreDistribution value="0" recordCount="0.0"/>
															<ScoreDistribution value="1" recordCount="24.0"/>
														</Node>
													</Node>
												</Node>
											</Node>
											<Node id="61">
												<SimplePredicate field="shower:size" operator="greaterThan" value="2250.494"/>
												<Node id="62">
													<SimplePredicate field="shower:miss" operator="lessOrEqual" value="0.008969313"/>
													<Node id="63">
														<SimplePredicate field="shower:number_of_pixel" operator="lessOrEqual" value="165.5"/>
														<Node id="64" score="0" recordCount="2.0">
															<SimplePredicate field="shower:number_of_pixel" operator="lessOrEqual" value="116.5"/>
															<ScoreDistribution value="0" recordCount="2.0"/>
															<ScoreDistribution value="1" recordCount="0.0"/>
														</Node>
														<Node id="65">
															<SimplePredicate field="shower:number_of_pixel" operator="greaterThan" value="116.5"/>
															<Node id="66" score="1" recordCount="9.0">
																<SimplePredicate field="shower:number_of_pixel" operator="lessOrEqual" value="151"/>
																<ScoreDistribution value="0" recordCount="0.0"/>
																<ScoreDistribution value="1" recordCount="9.0"/>
															</Node>
															<Node id="67" score="0" recordCount="4.0">
																<SimplePredicate field="shower:number_of_pixel" operator="greaterThan" value="151"/>
																<ScoreDistribution value="0" recordCount="2.0"/>
																<ScoreDistribution value="1" recordCount="2.0"/>
															</Node>
														</Node>
													</Node>
													<Node id="68" score="0" recordCount="8.0">
														<SimplePredicate field="shower:number_of_pixel" operator="greaterThan" value="165.5"/>
														<ScoreDistribution value="0" recordCount="8.0"/>
														<ScoreDistribution value="1" recordCount="0.0"/>
													</Node>
												</Node>
												<Node id="69">
													<SimplePredicate field="shower:miss" operator="greaterThan" value="0.008969313"/>
													<Node id="70">
														<SimplePredicate field="array:num_triggered_telescopes" operator="lessOrEqual" value="16.5"/>
														<Node id="71">
															<SimplePredicate field="shower:width" operator="lessOrEqual" value="0.3789928"/>
															<Node id="72" score="0" recordCount="107.0">
																<SimplePredicate field="shower:length" operator="lessOrEqual" value="0.40665275"/>
																<ScoreDistribution value="0" recordCount="104.0"/>
																<ScoreDistribution value="1" recordCount="3.0"/>
															</Node>
															<Node id="73" score="1" recordCount="1.0">
																<SimplePredicate field="shower:length" operator="greaterThan" value="0.40665275"/>
																<ScoreDistribution value="0" recordCount="0.0"/>
																<ScoreDistribution value="1" recordCount="1.0"/>
															</Node>
														</Node>
														<Node id="74">
															<SimplePredicate field="shower:width" operator="greaterThan" value="0.3789928"/>
															<Node id="75" score="1" recordCount="2.0">
																<SimplePredicate field="shower:skewness" operator="lessOrEqual" value="0.046933692"/>
																<ScoreDistribution value="0" recordCount="0.0"/>
																<ScoreDistribution value="1" recordCount="2.0"/>
															</Node>
															<Node id="76" score="0" recordCount="2.0">
																<SimplePredicate field="shower:skewness" operator="greaterThan" value="0.046933692"/>
																<ScoreDistribution value="0" recordCount="2.0"/>
																<ScoreDistribution value="1" recordCount="0.0"/>
															</Node>
														</Node>
													</Node>
													<Node id="77">
														<SimplePredicate field="array:num_triggered_telescopes" operator="greaterThan" value="16.5"/>
														<Node id="78" score="1" recordCount="6.0">
															<SimplePredicate field="array:num_triggered_telescopes" operator="lessOrEqual" value="21"/>
															<ScoreDistribution value="0" recordCount="0.0"/>
															<ScoreDistribution value="1" recordCount="6.0"/>
														</Node>
														<Node id="79" score="0" recordCount="4.0">
															<SimplePredicate field="array:num_triggered_telescopes" operator="greaterThan" value="21"/>
															<ScoreDistribution value="0" recordCount="4.0"/>
															<ScoreDistribution value="1" recordCount="0.0"/>
														</Node>
													</Node>
												</Node>
											</Node>
										</Node>
									</Node>
								</Node>
							</Node>
							<Node id="80">
								<SimplePredicate field="shower:kurtosis" operator="greaterThan" value="4.083823"/>
								<Node id="81">
									<SimplePredicate field="shower:width" operator="lessOrEqual" value="0.33327502"/>
									<Node id="82">
										<SimplePredicate field="shower:size" operator="lessOrEqual" value="458.94305"/>
										<Node id="83" score="1" recordCount="10.0">
											<SimplePredicate field="shower:miss" operator="lessOrEqual" value="0.01923617"/>
											<ScoreDistribution value="0" recordCount="0.0"/>
											<ScoreDistribution value="1" recordCount="10.0"/>
										</Node>
										<Node id="84">
											<SimplePredicate field="shower:miss" operator="greaterThan" value="0.01923617"/>
											<Node id="85" score="0" recordCount="8.0">
												<SimplePredicate field="shower:miss" operator="lessOrEqual" value="0.06304845"/>
												<ScoreDistribution value="0" recordCount="8.0"/>
												<ScoreDistribution value="1" recordCount="0.0"/>
											</Node>
											<Node id="86">
												<SimplePredicate field="shower:miss" operator="greaterThan" value="0.06304845"/>
												<Node id="87" score="1" recordCount="1.0">
													<SimplePredicate field="shower:width" operator="lessOrEqual" value="0.2348146"/>
													<ScoreDistribution value="0" recordCount="0.0"/>
													<ScoreDistribution value="1" recordCount="1.0"/>
												</Node>
												<Node id="88" score="0" recordCount="1.0">
													<SimplePredicate field="shower:width" operator="greaterThan" value="0.2348146"/>
													<ScoreDistribution value="0" recordCount="1.0"/>
													<ScoreDistribution value="1" recordCount="0.0"/>
												</Node>
											</Node>
										</Node>
									</Node>
									<Node id="89">
										<SimplePredicate field="shower:size" operator="greaterThan" value="458.94305"/>
										<Node id="90">
											<SimplePredicate field="shower:number_of_pixel" operator="lessOrEqual" value="146.5"/>
											<Node id="91" score="1" recordCount="89.0">
												<SimplePredicate field="shower:number_of_pixel" operator="lessOrEqual" value="72.5"/>
												<ScoreDistribution value="0" recordCount="0.0"/>
												<ScoreDistribution value="1" recordCount="89.0"/>
											</Node>
											<Node id="92">
												<SimplePredicate field="shower:number_of_pixel" operator="greaterThan" value="72.5"/>
												<Node id="93" score="1" recordCount="88.0">
													<SimplePredicate field="shower:miss" operator="lessOrEqual" value="0.05091381"/>
													<ScoreDistribution value="0" recordCount="0.0"/>
													<ScoreDistribution value="1" recordCount="88.0"/>
												</Node>
												<Node id="94">
													<SimplePredicate field="shower:miss" operator="greaterThan" value="0.05091381"/>
													<Node id="95">
														<SimplePredicate field="array:num_triggered_telescopes" operator="lessOrEqual" value="4.5"/>
														<Node id="96" score="1" recordCount="1.0">
															<SimplePredicate field="shower:skewness" operator="lessOrEqual" value="-0.4605096"/>
															<ScoreDistribution value="0" recordCount="0.0"/>
															<ScoreDistribution value="1" recordCount="1.0"/>
														</Node>
														<Node id="97" score="0" recordCount="2.0">
															<SimplePredicate field="shower:skewness" operator="greaterThan" value="-0.4605096"/>
															<ScoreDistribution value="0" recordCount="2.0"/>
															<ScoreDistribution value="1" recordCount="0.0"/>
														</Node>
													</Node>
													<Node id="98">
														<SimplePredicate field="array:num_triggered_telescopes" operator="greaterThan" value="4.5"/>
														<Node id="99">
															<SimplePredicate field="shower:length" operator="lessOrEqual" value="0.3341838"/>
															<Node id="100" score="1" recordCount="8.0">
																<SimplePredicate field="shower:length" operator="lessOrEqual" value="0.32078904"/>
																<ScoreDistribution value="0" recordCount="1.0"/>
																<ScoreDistribution value="1" recordCount="7.0"/>
															</Node>
															<Node id="101" score="0" recordCount="1.0">
																<SimplePredicate field="shower:length" operator="greaterThan" value="0.32078904"/>
																<ScoreDistribution value="0" recordCount="1.0"/>
																<ScoreDistribution value="1" recordCount="0.0"/>
															</Node>
														</Node>
														<Node id="102" score="1" recordCount="7.0">
															<SimplePredicate field="shower:length" operator="greaterThan" value="0.3341838"/>
															<ScoreDistribution value="0" recordCount="0.0"/>
															<ScoreDistribution value="1" recordCount="7.0"/>
														</Node>
													</Node>
												</Node>
											</Node>
										</Node>
										<Node id="103">
											<SimplePredicate field="shower:number_of_pixel" operator="greaterThan" value="146.5"/>
											<Node id="104" score="0" recordCount="5.0">
												<SimplePredicate field="array:num_triggered_telescopes" operator="lessOrEqual" value="9.5"/>
												<ScoreDistribution value="0" recordCount="5.0"/>
												<ScoreDistribution value="1" recordCount="0.0"/>
											</Node>
											<Node id="105">
												<SimplePredicate field="array:num_triggered_telescopes" operator="greaterThan" value="9.5"/>
												<Node id="106">
													<SimplePredicate field="shower:miss" operator="lessOrEqual" value="0.07739744"/>
													<Node id="107">
														<SimplePredicate field="array:num_triggered_telescopes" operator="lessOrEqual" value="21"/>
														<Node id="108" score="1" recordCount="22.0">
															<SimplePredicate field="shower:miss" operator="lessOrEqual" value="0.042696618"/>
															<ScoreDistribution value="0" recordCount="0.0"/>
															<ScoreDistribution value="1" recordCount="22.0"/>
														</Node>
														<Node id="109">
															<SimplePredicate field="shower:miss" operator="greaterThan" value="0.042696618"/>
															<Node id="110" score="1" recordCount="2.0">
																<SimplePredicate field="array:num_triggered_telescopes" operator="lessOrEqual" value="12"/>
																<ScoreDistribution value="0" recordCount="0.0"/>
																<ScoreDistribution value="1" recordCount="2.0"/>
															</Node>
															<Node id="111" score="0" recordCount="4.0">
																<SimplePredicate field="array:num_triggered_telescopes" operator="greaterThan" value="12"/>
																<ScoreDistribution value="0" recordCount="2.0"/>
																<ScoreDistribution value="1" recordCount="2.0"/>
															</Node>
														</Node>
													</Node>
													<Node id="112" score="0" recordCount="2.0">
														<SimplePredicate field="array:num_triggered_telescopes" operator="greaterThan" value="21"/>
														<ScoreDistribution value="0" recordCount="2.0"/>
														<ScoreDistribution value="1" recordCount="0.0"/>
													</Node>
												</Node>
												<Node id="113" score="0" recordCount="2.0">
													<SimplePredicate field="shower:miss" operator="greaterThan" value="0.07739744"/>
													<ScoreDistribution value="0" recordCount="2.0"/>
													<ScoreDistribution value="1" recordCount="0.0"/>
												</Node>
											</Node>
										</Node>
									</Node>
								</Node>
								<Node id="114">
									<SimplePredicate field="shower:width" operator="greaterThan" value="0.33327502"/>
									<Node id="115">
										<SimplePredicate field="shower:miss" operator="lessOrEqual" value="0.03432198"/>
										<Node id="116">
											<SimplePredicate field="array:num_triggered_telescopes" operator="lessOrEqual" value="5.5"/>
											<Node id="117" score="1" recordCount="6.0">
												<SimplePredicate field="array:num_triggered_telescopes" operator="lessOrEqual" value="4"/>
												<ScoreDistribution value="0" recordCount="0.0"/>
												<ScoreDistribution value="1" recordCount="6.0"/>
											</Node>
											<Node id="118">
												<SimplePredicate field="array:num_triggered_telescopes" operator="greaterThan" value="4"/>
												<Node id="119" score="1" recordCount="3.0">
													<SimplePredicate field="shower:size" operator="lessOrEqual" value="2017.3538"/>
													<ScoreDistribution value="0" recordCount="0.0"/>
													<ScoreDistribution value="1" recordCount="3.0"/>
												</Node>
												<Node id="120" score="0" recordCount="3.0">
													<SimplePredicate field="shower:size" operator="greaterThan" value="2017.3538"/>
													<ScoreDistribution value="0" recordCount="3.0"/>
													<ScoreDistribution value="1" recordCount="0.0"/>
												</Node>
											</Node>
										</Node>
										<Node id="121" score="1" recordCount="45.0">
											<SimplePredicate field="array:num_triggered_telescopes" operator="greaterThan" value="5.5"/>
											<ScoreDistribution value="0" recordCount="0.0"/>
											<ScoreDistribution value="1" recordCount="45.0"/>
										</Node>
									</Node>
									<Node id="122">
										<SimplePredicate field="shower:miss" operator="greaterThan" value="0.03432198"/>
										<Node id="123">
											<SimplePredicate field="shower:number_of_pixel" operator="lessOrEqual" value="118"/>
											<Node id="124">
												<SimplePredicate field="shower:number_of_pixel" operator="lessOrEqual" value="98.5"/>
												<Node id="125" score="0" recordCount="4.0">
													<SimplePredicate field="shower:width" operator="lessOrEqual" value="0.34315774"/>
													<ScoreDistribution value="0" recordCount="4.0"/>
													<ScoreDistribution value="1" recordCount="0.0"/>
												</Node>
												<Node id="126">
													<SimplePredicate field="shower:width" operator="greaterThan" value="0.34315774"/>
													<Node id="127" score="1" recordCount="4.0">
														<SimplePredicate field="shower:length" operator="lessOrEqual" value="0.38512897"/>
														<ScoreDistribution value="0" recordCount="0.0"/>
														<ScoreDistribution value="1" recordCount="4.0"/>
													</Node>
													<Node id="128" score="0" recordCount="2.0">
														<SimplePredicate field="shower:length" operator="greaterThan" value="0.38512897"/>
														<ScoreDistribution value="0" recordCount="2.0"/>
														<ScoreDistribution value="1" recordCount="0.0"/>
													</Node>
												</Node>
											</Node>
											<Node id="129" score="1" recordCount="18.0">
												<SimplePredicate field="shower:number_of_pixel" operator="greaterThan" value="98.5"/>
												<ScoreDistribution value="0" recordCount="0.0"/>
												<ScoreDistribution value="1" recordCount="18.0"/>
											</Node>
										</Node>
										<Node id="130">
											<SimplePredicate field="shower:number_of_pixel" operator="greaterThan" value="118"/>
											<Node id="131" score="0" recordCount="16.0">
												<SimplePredicate field="shower:size" operator="lessOrEqual" value="3166.9756"/>
												<ScoreDistribution value="0" recordCount="16.0"/>
												<ScoreDistribution value="1" recordCount="0.0"/>
											</Node>
											<Node id="132">
												<SimplePredicate field="shower:size" operator="greaterThan" value="3166.9756"/>
												<Node id="133" score="1" recordCount="2.0">
													<SimplePredicate field="array:num_triggered_telescopes" operator="lessOrEqual" value="14"/>
													<ScoreDistribution value="0" recordCount="0.0"/>
													<ScoreDistribution value="1" recordCount="2.0"/>
												</Node>
												<Node id="134" score="0" recordCount="1.0">
													<SimplePredicate field="array:num_triggered_telescopes" operator="greaterThan" value="14"/>
													<ScoreDistribution value="0" recordCount="1.0"/>
													<ScoreDistribution value="1" recordCount="0.0"/>
												</Node>
											</Node>
										</Node>
									</Node>
								</Node>
							</Node>
						</Node>
						<Node id="135">
							<SimplePredicate field="shower:length" operator="greaterThan" value="0.40946096"/>
							<Node id="136">
								<SimplePredicate field="array:num_triggered_telescopes" operator="lessOrEqual" value="5.5"/>
								<Node id="137" score="0" recordCount="38.0">
									<SimplePredicate field="shower:miss" operator="lessOrEqual" value="0.07082395"/>
									<ScoreDistribution value="0" recordCount="38.0"/>
									<ScoreDistribution value="1" recordCount="0.0"/>
								</Node>
								<Node id="138">
									<SimplePredicate field="shower:miss" operator="greaterThan" value="0.07082395"/>
									<Node id="139" score="1" recordCount="1.0">
										<SimplePredicate field="array:num_triggered_telescopes" operator="lessOrEqual" value="2.5"/>
										<ScoreDistribution value="0" recordCount="0.0"/>
										<ScoreDistribution value="1" recordCount="1.0"/>
									</Node>
									<Node id="140">
										<SimplePredicate field="array:num_triggered_telescopes" operator="greaterThan" value="2.5"/>
										<Node id="141" score="0" recordCount="2.0">
											<SimplePredicate field="shower:miss" operator="lessOrEqual" value="0.08767793"/>
											<ScoreDistribution value="0" recordCount="2.0"/>
											<ScoreDistribution value="1" recordCount="0.0"/>
										</Node>
										<Node id="142" score="1" recordCount="1.0">
											<SimplePredicate field="shower:miss" operator="greaterThan" value="0.08767793"/>
											<ScoreDistribution value="0" recordCount="0.0"/>
											<ScoreDistribution value="1" recordCount="1.0"/>
										</Node>
									</Node>
								</Node>
							</Node>
							<Node id="143">
								<SimplePredicate field="array:num_triggered_telescopes" operator="greaterThan" value="5.5"/>
								<Node id="144" score="1" recordCount="19.0">
									<SimplePredicate field="shower:size" operator="lessOrEqual" value="1482.9436"/>
									<ScoreDistribution value="0" recordCount="0.0"/>
									<ScoreDistribution value="1" recordCount="19.0"/>
								</Node>
								<Node id="145">
									<SimplePredicate field="shower:size" operator="greaterThan" value="1482.9436"/>
									<Node id="146">
										<SimplePredicate field="shower:size" operator="lessOrEqual" value="2242.2642"/>
										<Node id="147" score="0" recordCount="6.0">
											<SimplePredicate field="array:num_triggered_telescopes" operator="lessOrEqual" value="9"/>
											<ScoreDistribution value="0" recordCount="6.0"/>
											<ScoreDistribution value="1" recordCount="0.0"/>
										</Node>
										<Node id="148" score="1" recordCount="5.0">
											<SimplePredicate field="array:num_triggered_telescopes" operator="greaterThan" value="9"/>
											<ScoreDistribution value="0" recordCount="0.0"/>
											<ScoreDistribution value="1" recordCount="5.0"/>
										</Node>
									</Node>
									<Node id="149">
										<SimplePredicate field="shower:size" operator="greaterThan" value="2242.2642"/>
										<Node id="150" score="0" recordCount="25.0">
											<SimplePredicate field="shower:kurtosis" operator="lessOrEqual" value="3.2991657"/>
											<ScoreDistribution value="0" recordCount="25.0"/>
											<ScoreDistribution value="1" recordCount="0.0"/>
										</Node>
										<Node id="151">
											<SimplePredicate field="shower:kurtosis" operator="greaterThan" value="3.2991657"/>
											<Node id="152" score="0" recordCount="4.0">
												<SimplePredicate field="shower:miss" operator="lessOrEqual" value="0.01639302"/>
												<ScoreDistribution value="0" recordCount="4.0"/>
												<ScoreDistribution value="1" recordCount="0.0"/>
											</Node>
											<Node id="153">
												<SimplePredicate field="shower:miss" operator="greaterThan" value="0.01639302"/>
												<Node id="154">
													<SimplePredicate field="shower:skewness" operator="lessOrEqual" value="0.49566007"/>
													<Node id="155">
														<SimplePredicate field="shower:kurtosis" operator="lessOrEqual" value="3.532226"/>
														<Node id="156" score="0" recordCount="2.0">
															<SimplePredicate field="shower:skewness" operator="lessOrEqual" value="0.2639684"/>
															<ScoreDistribution value="0" recordCount="2.0"/>
															<ScoreDistribution value="1" recordCount="0.0"/>
														</Node>
														<Node id="157" score="1" recordCount="1.0">
															<SimplePredicate field="shower:skewness" operator="greaterThan" value="0.2639684"/>
															<ScoreDistribution value="0" recordCount="0.0"/>
															<ScoreDistribution value="1" recordCount="1.0"/>
														</Node>
													</Node>
													<Node id="158" score="1" recordCount="2.0">
														<SimplePredicate field="shower:kurtosis" operator="greaterThan" value="3.532226"/>
														<ScoreDistribution value="0" recordCount="0.0"/>
														<ScoreDistribution value="1" recordCount="2.0"/>
													</Node>
												</Node>
												<Node id="159" score="0" recordCount="2.0">
													<SimplePredicate field="shower:skewness" operator="greaterThan" value="0.49566007"/>
													<ScoreDistribution value="0" recordCount="2.0"/>
													<ScoreDistribution value="1" recordCount="0.0"/>
												</Node>
											</Node>
										</Node>
									</Node>
								</Node>
							</Node>
						</Node>
					</Node>
				</TreeModel>
			</Segment>
			<Segment id="2">
				<True/>
				<TreeModel functionName="classification" splitCharacteristic="binarySplit">
					<MiningSchema>
						<MiningField name="shower:number_of_pixel"/>
						<MiningField name="shower:width"/>
						<MiningField name="shower:length"/>
						<MiningField name="shower:skewness"/>
						<MiningField name="shower:kurtosis"/>
						<MiningField name="shower:miss"/>
						<MiningField name="shower:size"/>
						<MiningField name="array:num_triggered_telescopes"/>
					</MiningSchema>
					<Node id="1">
						<True/>
						<Node id="2">
							<SimplePredicate field="shower:length" operator="lessOrEqual" value="0.40979278"/>
							<Node id="3">
								<SimplePredicate field="shower:kurtosis" operator="lessOrEqual" value="3.8591018"/>
								<Node id="4">
									<SimplePredicate field="shower:width" operator="lessOrEqual" value="0.0022071814"/>
									<Node id="5" score="1" recordCount="21.0">
										<SimplePredicate field="shower:skewness" operator="lessOrEqual" value="-1.424335"/>
										<ScoreDistribution value="0" recordCount="0.0"/>
										<ScoreDistribution value="1" recordCount="21.0"/>
									</Node>
									<Node id="6">
										<SimplePredicate field="shower:skewness" operator="greaterThan" value="-1.424335"/>
										<Node id="7">
											<SimplePredicate field="array:num_triggered_telescopes" operator="lessOrEqual" value="3.5"/>
											<Node id="8">
												<SimplePredicate field="shower:width" operator="lessOrEqual" value="0.0021202927"/>
												<Node id="9">
													<SimplePredicate field="shower:miss" operator="lessOrEqual" value="3.222307E-4"/>
													<Node id="10" score="0" recordCount="9.0">
														<SimplePredicate field="shower:size" operator="lessOrEqual" value="147.96352"/>
														<ScoreDistribution value="0" recordCount="9.0"/>
														<ScoreDistribution value="1" recordCount="0.0"/>
													</Node>
													<Node id="11" score="1" recordCount="1.0">
														<SimplePredicate field="shower:size" operator="greaterThan" value="147.96352"/>
														<ScoreDistribution value="0" recordCount="0.0"/>
														<ScoreDistribution value="1" recordCount="1.0"/>
													</Node>
												</Node>
												<Node id="12" score="1" recordCount="2.0">
													<SimplePredicate field="shower:miss" operator="greaterThan" value="3.222307E-4"/>
													<ScoreDistribution value="0" recordCount="0.0"/>
													<ScoreDistribution value="1" recordCount="2.0"/>
												</Node>
											</Node>
											<Node id="13" score="1" recordCount="1.0">
												<SimplePredicate field="shower:width" operator="greaterThan" value="0.0021202927"/>
												<ScoreDistribution value="0" recordCount="0.0"/>
												<ScoreDistribution value="1" recordCount="1.0"/>
											</Node>
										</Node>
										<Node id="14">
											<SimplePredicate field="array:num_triggered_telescopes" operator="greaterThan" value="3.5"/>
											<Node id="15" score="0" recordCount="2.0">
												<SimplePredicate field="shower:width" operator="lessOrEqual" value="2.3103149E-4"/>
												<ScoreDistribution value="0" recordCount="2.0"/>
												<ScoreDistribution value="1" recordCount="0.0"/>
											</Node>
											<Node id="16" score="1" recordCount="16.0">
												<SimplePredicate field="shower:width" operator="greaterThan" value="2.3103149E-4"/>
												<ScoreDistribution value="0" recordCount="0.0"/>
												<ScoreDistribution value="1" recordCount="16.0"/>
											</Node>
										</Node>
									</Node>
								</Node>
								<Node id="17">
									<SimplePredicate field="shower:width" operator="greaterThan" value="0.0022071814"/>
									<Node id="18">
										<SimplePredicate field="shower:kurtosis" operator="lessOrEqual" value="2.8386464"/>
										<Node id="19">
											<SimplePredicate field="shower:width" operator="lessOrEqual" value="0.2529334"/>
											<Node id="20">
												<SimplePredicate field="shower:size" operator="lessOrEqual" value="128.74388"/>
												<Node id="21" score="0" recordCount="17.0">
													<SimplePredicate field="shower:skewness" operator="lessOrEqual" value="-1.0381727"/>
													<ScoreDistribution value="0" recordCount="17.0"/>
													<ScoreDistribution value="1" recordCount="0.0"/>
												</Node>
												<Node id="22">
													<SimplePredicate field="shower:skewness" operator="greaterThan" value="-1.0381727"/>
													<Node id="23" score="0" recordCount="14.0">
														<SimplePredicate field="shower:size" operator="lessOrEqual" value="112.04079"/>
														<ScoreDistribution value="0" recordCount="14.0"/>
														<ScoreDistribution value="1" recordCount="0.0"/>
													</Node>
													<Node id="24">
														<SimplePredicate field="shower:size" operator="greaterThan" value="112.04079"/>
														<Node id="25" score="1" recordCount="1.0">
															<SimplePredicate field="shower:size" operator="lessOrEqual" value="121.03621"/>
															<ScoreDistribution value="0" recordCount="0.0"/>
															<ScoreDistribution value="1" recordCount="1.0"/>
														</Node>
														<Node id="26">
															<SimplePredicate field="shower:size" operator="greaterThan" value="121.03621"/>
															<Node id="27" score="0" recordCount="3.0">
																<SimplePredicate field="shower:kurtosis" operator="lessOrEqual" value="2.526905"/>
																<ScoreDistribution value="0" recordCount="3.0"/>
																<ScoreDistribution value="1" recordCount="0.0"/>
															</Node>
															<Node id="28" score="1" recordCount="1.0">
																<SimplePredicate field="shower:kurtosis" operator="greaterThan" value="2.526905"/>
																<ScoreDistribution value="0" recordCount="0.0"/>
																<ScoreDistribution value="1" recordCount="1.0"/>
															</Node>
														</Node>
													</Node>
												</Node>
											</Node>
											<Node id="29" score="0" recordCount="71.0">
												<SimplePredicate field="shower:size" operator="greaterThan" value="128.74388"/>
												<ScoreDistribution value="0" recordCount="71.0"/>
												<ScoreDistribution value="1" recordCount="0.0"/>
											</Node>
										</Node>
										<Node id="30">
											<SimplePredicate field="shower:width" operator="greaterThan" value="0.2529334"/>
											<Node id="31" score="1" recordCount="1.0">
												<SimplePredicate field="shower:size" operator="lessOrEqual" value="1781.5175"/>
												<ScoreDistribution value="0" recordCount="0.0"/>
												<ScoreDistribution value="1" recordCount="1.0"/>
											</Node>
											<Node id="32" score="0" recordCount="3.0">
												<SimplePredicate field="shower:size" operator="greaterThan" value="1781.5175"/>
												<ScoreDistribution value="0" recordCount="3.0"/>
												<ScoreDistribution value="1" recordCount="0.0"/>
											</Node>
										</Node>
									</Node>
									<Node id="33">
										<SimplePredicate field="shower:kurtosis" operator="greaterThan" value="2.8386464"/>
										<Node id="34">
											<SimplePredicate field="shower:number_of_pixel" operator="lessOrEqual" value="143.5"/>
											<Node id="35">
												<SimplePredicate field="shower:miss" operator="lessOrEqual" value="0.12348074"/>
												<Node id="36" score="1" recordCount="8.0">
													<SimplePredicate field="shower:miss" operator="lessOrEqual" value="6.5314304E-4"/>
													<ScoreDistribution value="0" recordCount="0.0"/>
													<ScoreDistribution value="1" recordCount="8.0"/>
												</Node>
												<Node id="37">
													<SimplePredicate field="shower:miss" operator="greaterThan" value="6.5314304E-4"/>
													<Node id="38">
														<SimplePredicate field="shower:skewness" operator="lessOrEqual" value="1.317443"/>
														<Node id="39">
															<SimplePredicate field="shower:length" operator="lessOrEqual" value="0.40674675"/>
															<Node id="40" score="0" recordCount="85.0">
																<SimplePredicate field="shower:width" operator="lessOrEqual" value="0.3305857"/>
																<ScoreDistribution value="0" recordCount="46.0"/>
																<ScoreDistribution value="1" recordCount="39.0"/>
															</Node>
															<Node id="41" score="0" recordCount="87.0">
																<SimplePredicate field="shower:width" operator="greaterThan" value="0.3305857"/>
																<ScoreDistribution value="0" recordCount="68.0"/>
																<ScoreDistribution value="1" recordCount="19.0"/>
															</Node>
														</Node>
														<Node id="42">
															<SimplePredicate field="shower:length" operator="greaterThan" value="0.40674675"/>
															<Node id="43" score="1" recordCount="11.0">
																<SimplePredicate field="shower:width" operator="lessOrEqual" value="0.38779444"/>
																<ScoreDistribution value="0" recordCount="0.0"/>
																<ScoreDistribution value="1" recordCount="11.0"/>
															</Node>
															<Node id="44" score="0" recordCount="1.0">
																<SimplePredicate field="shower:width" operator="greaterThan" value="0.38779444"/>
																<ScoreDistribution value="0" recordCount="1.0"/>
																<ScoreDistribution value="1" recordCount="0.0"/>
															</Node>
														</Node>
													</Node>
													<Node id="45" score="0" recordCount="14.0">
														<SimplePredicate field="shower:skewness" operator="greaterThan" value="1.317443"/>
														<ScoreDistribution value="0" recordCount="14.0"/>
														<ScoreDistribution value="1" recordCount="0.0"/>
													</Node>
												</Node>
											</Node>
											<Node id="46" score="1" recordCount="9.0">
												<SimplePredicate field="shower:miss" operator="greaterThan" value="0.12348074"/>
												<ScoreDistribution value="0" recordCount="0.0"/>
												<ScoreDistribution value="1" recordCount="9.0"/>
											</Node>
										</Node>
										<Node id="47">
											<SimplePredicate field="shower:number_of_pixel" operator="greaterThan" value="143.5"/>
											<Node id="48">
												<SimplePredicate field="shower:size" operator="lessOrEqual" value="6578.491"/>
												<Node id="49">
													<SimplePredicate field="shower:size" operator="lessOrEqual" value="5972.75"/>
													<Node id="50" score="0" recordCount="17.0">
														<SimplePredicate field="shower:length" operator="lessOrEqual" value="0.32969156"/>
														<ScoreDistribution value="0" recordCount="17.0"/>
														<ScoreDistribution value="1" recordCount="0.0"/>
													</Node>
													<Node id="51">
														<SimplePredicate field="shower:length" operator="greaterThan" value="0.32969156"/>
														<Node id="52">
															<SimplePredicate field="array:num_triggered_telescopes" operator="lessOrEqual" value="16"/>
															<Node id="53" score="0" recordCount="20.0">
																<SimplePredicate field="shower:miss" operator="lessOrEqual" value="0.047989167"/>
																<ScoreDistribution value="0" recordCount="20.0"/>
																<ScoreDistribution value="1" recordCount="0.0"/>
															</Node>
															<Node id="54" score="0" recordCount="9.0">
																<SimplePredicate field="shower:miss" operator="greaterThan" value="0.047989167"/>
																<ScoreDistribution value="0" recordCount="8.0"/>
																<ScoreDistribution value="1" recordCount="1.0"/>
															</Node>
														</Node>
														<Node id="55">
															<SimplePredicate field="array:num_triggered_telescopes" operator="greaterThan" value="16"/>
															<Node id="56" score="1" recordCount="2.0">
																<SimplePredicate field="shower:number_of_pixel" operator="lessOrEqual" value="173.5"/>
																<ScoreDistribution value="0" recordCount="0.0"/>
																<ScoreDistribution value="1" recordCount="2.0"/>
															</Node>
															<Node id="57" score="0" recordCount="2.0">
																<SimplePredicate field="shower:number_of_pixel" operator="greaterThan" value="173.5"/>
																<ScoreDistribution value="0" recordCount="2.0"/>
																<ScoreDistribution value="1" recordCount="0.0"/>
															</Node>
														</Node>
													</Node>
												</Node>
												<Node id="58" score="1" recordCount="2.0">
													<SimplePredicate field="shower:size" operator="greaterThan" value="5972.75"/>
													<ScoreDistribution value="0" recordCount="0.0"/>
													<ScoreDistribution value="1" recordCount="2.0"/>
												</Node>
											</Node>
											<Node id="59" score="0" recordCount="19.0">
												<SimplePredicate field="shower:size" operator="greaterThan" value="6578.491"/>
												<ScoreDistribution value="0" recordCount="19.0"/>
												<ScoreDistribution value="1" recordCount="0.0"/>
											</Node>
										</Node>
									</Node>
								</Node>
							</Node>
							<Node id="60">
								<SimplePredicate field="shower:kurtosis" operator="greaterThan" value="3.8591018"/>
								<Node id="61">
									<SimplePredicate field="array:num_triggered_telescopes" operator="lessOrEqual" value="21"/>
									<Node id="62">
										<SimplePredicate field="shower:miss" operator="lessOrEqual" value="0.015496495"/>
										<Node id="63" score="1" recordCount="94.0">
											<SimplePredicate field="shower:size" operator="lessOrEqual" value="5153.4346"/>
											<ScoreDistribution value="0" recordCount="0.0"/>
											<ScoreDistribution value="1" recordCount="94.0"/>
										</Node>
										<Node id="64">
											<SimplePredicate field="shower:size" operator="greaterThan" value="5153.4346"/>
											<Node id="65" score="1" recordCount="10.0">
												<SimplePredicate field="shower:width" operator="lessOrEqual" value="0.19495738"/>
												<ScoreDistribution value="0" recordCount="0.0"/>
												<ScoreDistribution value="1" recordCount="10.0"/>
											</Node>
											<Node id="66" score="0" recordCount="1.0">
												<SimplePredicate field="shower:width" operator="greaterThan" value="0.19495738"/>
												<ScoreDistribution value="0" recordCount="1.0"/>
												<ScoreDistribution value="1" recordCount="0.0"/>
											</Node>
										</Node>
									</Node>
									<Node id="67">
										<SimplePredicate field="shower:miss" operator="greaterThan" value="0.015496495"/>
										<Node id="68">
											<SimplePredicate field="shower:width" operator="lessOrEqual" value="0.36378202"/>
											<Node id="69">
												<SimplePredicate field="shower:size" operator="lessOrEqual" value="2479.5596"/>
												<Node id="70" score="0" recordCount="3.0">
													<SimplePredicate field="shower:skewness" operator="lessOrEqual" value="-1.8963451"/>
													<ScoreDistribution value="0" recordCount="3.0"/>
													<ScoreDistribution value="1" recordCount="0.0"/>
												</Node>
												<Node id="71">
													<SimplePredicate field="shower:skewness" operator="greaterThan" value="-1.8963451"/>
													<Node id="72">
														<SimplePredicate field="shower:kurtosis" operator="lessOrEqual" value="3.971796"/>
														<Node id="73">
															<SimplePredicate field="shower:miss" operator="lessOrEqual" value="0.050961226"/>
															<Node id="74" score="1" recordCount="3.0">
																<SimplePredicate field="shower:number_of_pixel" operator="lessOrEqual" value="95.5"/>
																<ScoreDistribution value="0" recordCount="1.0"/>
																<ScoreDistribution value="1" recordCount="2.0"/>
															</Node>
															<Node id="75" score="1" recordCount="7.0">
																<SimplePredicate field="shower:number_of_pixel" operator="greaterThan" value="95.5"/>
																<ScoreDistribution value="0" recordCount="0.0"/>
																<ScoreDistribution value="1" recordCount="7.0"/>
															</Node>
														</Node>
														<Node id="76" score="0" recordCount="4.0">
															<SimplePredicate field="shower:miss" operator="greaterThan" value="0.050961226"/>
															<ScoreDistribution value="0" recordCount="4.0"/>
															<ScoreDistribution value="1" recordCount="0.0"/>
														</Node>
													</Node>
													<Node id="77">
														<SimplePredicate field="shower:kurtosis" operator="greaterThan" value="3.971796"/>
														<Node id="78" score="1" recordCount="79.0">
															<SimplePredicate field="shower:miss" operator="lessOrEqual" value="0.06692083"/>
															<ScoreDistribution value="0" recordCount="0.0"/>
															<ScoreDistribution value="1" recordCount="79.0"/>
														</Node>
														<Node id="79">
															<SimplePredicate field="shower:miss" operator="greaterThan" value="0.06692083"/>
															<Node id="80" score="0" recordCount="1.0">
																<SimplePredicate field="shower:miss" operator="lessOrEqual" value="0.071588874"/>
																<ScoreDistribution value="0" recordCount="1.0"/>
																<ScoreDistribution value="1" recordCount="0.0"/>
															</Node>
															<Node id="81" score="1" recordCount="37.0">
																<SimplePredicate field="shower:miss" operator="greaterThan" value="0.071588874"/>
																<ScoreDistribution value="0" recordCount="1.0"/>
																<ScoreDistribution value="1" recordCount="36.0"/>
															</Node>
														</Node>
													</Node>
												</Node>
											</Node>
											<Node id="82">
												<SimplePredicate field="shower:size" operator="greaterThan" value="2479.5596"/>
												<Node id="83" score="1" recordCount="23.0">
													<SimplePredicate field="shower:number_of_pixel" operator="lessOrEqual" value="117.5"/>
													<ScoreDistribution value="0" recordCount="0.0"/>
													<ScoreDistribution value="1" recordCount="23.0"/>
												</Node>
												<Node id="84">
													<SimplePredicate field="shower:number_of_pixel" operator="greaterThan" value="117.5"/>
													<Node id="85">
														<SimplePredicate field="shower:skewness" operator="lessOrEqual" value="0.12456816"/>
														<Node id="86">
															<SimplePredicate field="shower:length" operator="lessOrEqual" value="0.35544002"/>
															<Node id="87" score="1" recordCount="30.0">
																<SimplePredicate field="shower:number_of_pixel" operator="lessOrEqual" value="174"/>
																<ScoreDistribution value="0" recordCount="5.0"/>
																<ScoreDistribution value="1" recordCount="25.0"/>
															</Node>
															<Node id="88" score="0" recordCount="3.0">
																<SimplePredicate field="shower:number_of_pixel" operator="greaterThan" value="174"/>
																<ScoreDistribution value="0" recordCount="3.0"/>
																<ScoreDistribution value="1" recordCount="0.0"/>
															</Node>
														</Node>
														<Node id="89">
															<SimplePredicate field="shower:length" operator="greaterThan" value="0.35544002"/>
															<Node id="90" score="0" recordCount="8.0">
																<SimplePredicate field="shower:length" operator="lessOrEqual" value="0.36198533"/>
																<ScoreDistribution value="0" recordCount="8.0"/>
																<ScoreDistribution value="1" recordCount="0.0"/>
															</Node>
															<Node id="91" score="0" recordCount="16.0">
																<SimplePredicate field="shower:length" operator="greaterThan" value="0.36198533"/>
																<ScoreDistribution value="0" recordCount="8.0"/>
																<ScoreDistribution value="1" recordCount="8.0"/>
															</Node>
														</Node>
													</Node>
													<Node id="92">
														<SimplePredicate field="shower:skewness" operator="greaterThan" value="0.12456816"/>
														<Node id="93">
															<SimplePredicate field="shower:kurtosis" operator="lessOrEqual" value="4.1276693"/>
															<Node id="94" score="1" recordCount="1.0">
																<SimplePredicate field="shower:miss" operator="lessOrEqual" value="0.04178685"/>
																<ScoreDistribution value="0" recordCount="0.0"/>
																<ScoreDistribution value="1" recordCount="1.0"/>
															</Node>
															<Node id="95" score="0" recordCount="1.0">
																<SimplePredicate field="shower:miss" operator="greaterThan" value="0.04178685"/>
																<ScoreDistribution value="0" recordCount="1.0"/>
																<ScoreDistribution value="1" recordCount="0.0"/>
															</Node>
														</Node>
														<Node id="96" score="1" recordCount="19.0">
															<SimplePredicate field="shower:kurtosis" operator="greaterThan" value="4.1276693"/>
															<ScoreDistribution value="0" recordCount="0.0"/>
															<ScoreDistribution value="1" recordCount="19.0"/>
														</Node>
													</Node>
												</Node>
											</Node>
										</Node>
										<Node id="97">
											<SimplePredicate field="shower:width" operator="greaterThan" value="0.36378202"/>
											<Node id="98" score="0" recordCount="11.0">
												<SimplePredicate field="shower:number_of_pixel" operator="lessOrEqual" value="98.5"/>
												<ScoreDistribution value="0" recordCount="11.0"/>
												<ScoreDistribution value="1" recordCount="0.0"/>
											</Node>
											<Node id="99">
												<SimplePredicate field="shower:number_of_pixel" operator="greaterThan" value="98.5"/>
												<Node id="100" score="1" recordCount="7.0">
													<SimplePredicate field="shower:number_of_pixel" operator="lessOrEqual" value="130"/>
													<ScoreDistribution value="0" recordCount="0.0"/>
													<ScoreDistribution value="1" recordCount="7.0"/>
												</Node>
												<Node id="101" score="0" recordCount="2.0">
													<SimplePredicate field="shower:number_of_pixel" operator="greaterThan" value="130"/>
													<ScoreDistribution value="0" recordCount="2.0"/>
													<ScoreDistribution value="1" recordCount="0.0"/>
												</Node>
											</Node>
										</Node>
									</Node>
								</Node>
								<Node id="102" score="0" recordCount="14.0">
									<SimplePredicate field="array:num_triggered_telescopes" operator="greaterThan" value="21"/>
									<ScoreDistribution value="0" recordCount="14.0"/>
									<ScoreDistribution value="1" recordCount="0.0"/>
								</Node>
							</Node>
						</Node>
						<Node id="103">
							<SimplePredicate field="shower:length" operator="greaterThan" value="0.40979278"/>
							<Node id="104">
								<SimplePredicate field="array:num_triggered_telescopes" operator="lessOrEqual" value="16.5"/>
								<Node id="105" score="1" recordCount="1.0">
									<SimplePredicate field="shower:skewness" operator="lessOrEqual" value="-0.61002696"/>
									<ScoreDistribution value="0" recordCount="0.0"/>
									<ScoreDistribution value="1" recordCount="1.0"/>
								</Node>
								<Node id="106">
									<SimplePredicate field="shower:skewness" operator="greaterThan" value="-0.61002696"/>
									<Node id="107" score="1" recordCount="7.0">
										<SimplePredicate field="shower:number_of_pixel" operator="lessOrEqual" value="74"/>
										<ScoreDistribution value="0" recordCount="0.0"/>
										<ScoreDistribution value="1" recordCount="7.0"/>
									</Node>
									<Node id="108">
										<SimplePredicate field="shower:number_of_pixel" operator="greaterThan" value="74"/>
										<Node id="109">
											<SimplePredicate field="shower:skewness" operator="lessOrEqual" value="0.05764"/>
											<Node id="110" score="0" recordCount="16.0">
												<SimplePredicate field="shower:width" operator="lessOrEqual" value="0.32745326"/>
												<ScoreDistribution value="0" recordCount="16.0"/>
												<ScoreDistribution value="1" recordCount="0.0"/>
											</Node>
											<Node id="111">
												<SimplePredicate field="shower:width" operator="greaterThan" value="0.32745326"/>
												<Node id="112" score="0" recordCount="14.0">
													<SimplePredicate field="shower:kurtosis" operator="lessOrEqual" value="3.4740257"/>
													<ScoreDistribution value="0" recordCount="14.0"/>
													<ScoreDistribution value="1" recordCount="0.0"/>
												</Node>
												<Node id="113">
													<SimplePredicate field="shower:kurtosis" operator="greaterThan" value="3.4740257"/>
													<Node id="114" score="0" recordCount="4.0">
														<SimplePredicate field="array:num_triggered_telescopes" operator="lessOrEqual" value="5.5"/>
														<ScoreDistribution value="0" recordCount="4.0"/>
														<ScoreDistribution value="1" recordCount="0.0"/>
													</Node>
													<Node id="115" score="1" recordCount="3.0">
														<SimplePredicate field="array:num_triggered_telescopes" operator="greaterThan" value="5.5"/>
														<ScoreDistribution value="0" recordCount="0.0"/>
														<ScoreDistribution value="1" recordCount="3.0"/>
													</Node>
												</Node>
											</Node>
										</Node>
										<Node id="116" score="0" recordCount="41.0">
											<SimplePredicate field="shower:skewness" operator="greaterThan" value="0.05764"/>
											<ScoreDistribution value="0" recordCount="41.0"/>
											<ScoreDistribution value="1" recordCount="0.0"/>
										</Node>
									</Node>
								</Node>
							</Node>
							<Node id="117" score="1" recordCount="4.0">
								<SimplePredicate field="array:num_triggered_telescopes" operator="greaterThan" value="16.5"/>
								<ScoreDistribution value="0" recordCount="0.0"/>
								<ScoreDistribution value="1" recordCount="4.0"/>
							</Node>
						</Node>
					</Node>
				</TreeModel>
			</Segment>
			<Segment id="3">
				<True/>
				<TreeModel functionName="classification" splitCharacteristic="binarySplit">
					<MiningSchema>
						<MiningField name="shower:number_of_pixel"/>
						<MiningField name="shower:width"/>
						<MiningField name="shower:length"/>
						<MiningField name="shower:skewness"/>
						<MiningField name="shower:kurtosis"/>
						<MiningField name="shower:miss"/>
						<MiningField name="shower:size"/>
						<MiningField name="array:num_triggered_telescopes"/>
					</MiningSchema>
					<Node id="1">
						<True/>
						<Node id="2">
							<SimplePredicate field="array:num_triggered_telescopes" operator="lessOrEqual" value="15"/>
							<Node id="3">
								<SimplePredicate field="shower:width" operator="lessOrEqual" value="0.37367415"/>
								<Node id="4">
									<SimplePredicate field="shower:number_of_pixel" operator="lessOrEqual" value="169.5"/>
									<Node id="5">
										<SimplePredicate field="shower:kurtosis" operator="lessOrEqual" value="3.7329001"/>
										<Node id="6">
											<SimplePredicate field="shower:width" operator="lessOrEqual" value="0.0025271056"/>
											<Node id="7">
												<SimplePredicate field="shower:size" operator="lessOrEqual" value="63.39228"/>
												<Node id="8">
													<SimplePredicate field="shower:skewness" operator="lessOrEqual" value="1.4148431"/>
													<Node id="9">
														<SimplePredicate field="shower:size" operator="lessOrEqual" value="35.94442"/>
														<Node id="10" score="0" recordCount="1.0">
															<SimplePredicate field="shower:number_of_pixel" operator="lessOrEqual" value="1.5"/>
															<ScoreDistribution value="0" recordCount="1.0"/>
															<ScoreDistribution value="1" recordCount="0.0"/>
														</Node>
														<Node id="11">
															<SimplePredicate field="shower:number_of_pixel" operator="greaterThan" value="1.5"/>
															<Node id="12" score="0" recordCount="1.0">
																<SimplePredicate field="array:num_triggered_telescopes" operator="lessOrEqual" value="6.5"/>
																<ScoreDistribution value="0" recordCount="1.0"/>
																<ScoreDistribution value="1" recordCount="0.0"/>
															</Node>
															<Node id="13" score="1" recordCount="1.0">
																<SimplePredicate field="array:num_triggered_telescopes" operator="greaterThan" value="6.5"/>
																<ScoreDistribution value="0" recordCount="0.0"/>
																<ScoreDistribution value="1" recordCount="1.0"/>
															</Node>
														</Node>
													</Node>
													<Node id="14" score="1" recordCount="6.0">
														<SimplePredicate field="shower:size" operator="greaterThan" value="35.94442"/>
														<ScoreDistribution value="0" recordCount="0.0"/>
														<ScoreDistribution value="1" recordCount="6.0"/>
													</Node>
												</Node>
												<Node id="15">
													<SimplePredicate field="shower:skewness" operator="greaterThan" value="1.4148431"/>
													<Node id="16">
														<SimplePredicate field="shower:number_of_pixel" operator="lessOrEqual" value="2.5"/>
														<Node id="17" score="0" recordCount="8.0">
															<SimplePredicate field="shower:miss" operator="lessOrEqual" value="9.951982E-5"/>
															<ScoreDistribution value="0" recordCount="8.0"/>
															<ScoreDistribution value="1" recordCount="0.0"/>
														</Node>
														<Node id="18">
															<SimplePredicate field="shower:miss" operator="greaterThan" value="9.951982E-5"/>
															<Node id="19" score="1" recordCount="2.0">
																<SimplePredicate field="shower:width" operator="lessOrEqual" value="0.0016167695"/>
																<ScoreDistribution value="0" recordCount="0.0"/>
																<ScoreDistribution value="1" recordCount="2.0"/>
															</Node>
															<Node id="20" score="0" recordCount="2.0">
																<SimplePredicate field="shower:width" operator="greaterThan" value="0.0016167695"/>
																<ScoreDistribution value="0" recordCount="1.0"/>
																<ScoreDistribution value="1" recordCount="1.0"/>
															</Node>
														</Node>
													</Node>
													<Node id="21" score="0" recordCount="9.0">
														<SimplePredicate field="shower:number_of_pixel" operator="greaterThan" value="2.5"/>
														<ScoreDistribution value="0" recordCount="9.0"/>
														<ScoreDistribution value="1" recordCount="0.0"/>
													</Node>
												</Node>
											</Node>
											<Node id="22">
												<SimplePredicate field="shower:size" operator="greaterThan" value="63.39228"/>
												<Node id="23">
													<SimplePredicate field="shower:kurtosis" operator="lessOrEqual" value="2.201509"/>
													<Node id="24" score="1" recordCount="1.0">
														<SimplePredicate field="shower:length" operator="lessOrEqual" value="0.019067498"/>
														<ScoreDistribution value="0" recordCount="0.0"/>
														<ScoreDistribution value="1" recordCount="1.0"/>
													</Node>
													<Node id="25" score="0" recordCount="6.0">
														<SimplePredicate field="shower:length" operator="greaterThan" value="0.019067498"/>
														<ScoreDistribution value="0" recordCount="6.0"/>
														<ScoreDistribution value="1" recordCount="0.0"/>
													</Node>
												</Node>
												<Node id="26" score="1" recordCount="37.0">
													<SimplePredicate field="shower:kurtosis" operator="greaterThan" value="2.201509"/>
													<ScoreDistribution value="0" recordCount="0.0"/>
													<ScoreDistribution value="1" recordCount="37.0"/>
												</Node>
											</Node>
										</Node>
										<Node id="27">
											<SimplePredicate field="shower:width" operator="greaterThan" value="0.0025271056"/>
											<Node id="28">
												<SimplePredicate field="shower:skewness" operator="lessOrEqual" value="-0.7061193"/>
												<Node id="29">
													<SimplePredicate field="shower:number_of_pixel" operator="lessOrEqual" value="10.5"/>
													<Node id="30" score="1" recordCount="1.0">
														<SimplePredicate field="shower:length" operator="lessOrEqual" value="0.014890846"/>
														<ScoreDistribution value="0" recordCount="0.0"/>
														<ScoreDistribution value="1" recordCount="1.0"/>
													</Node>
													<Node id="31" score="0" recordCount="23.0">
														<SimplePredicate field="shower:length" operator="greaterThan" value="0.014890846"/>
														<ScoreDistribution value="0" recordCount="23.0"/>
														<ScoreDistribution value="1" recordCount="0.0"/>
													</Node>
												</Node>
												<Node id="32" score="0" recordCount="39.0">
													<SimplePredicate field="shower:number_of_pixel" operator="greaterThan" value="10.5"/>
													<ScoreDistribution value="0" recordCount="39.0"/>
													<ScoreDistribution value="1" recordCount="0.0"/>
												</Node>
											</Node>
											<Node id="33">
												<SimplePredicate field="shower:skewness" operator="greaterThan" value="-0.7061193"/>
												<Node id="34">
													<SimplePredicate field="shower:number_of_pixel" operator="lessOrEqual" value="66.5"/>
													<Node id="35">
														<SimplePredicate field="shower:skewness" operator="lessOrEqual" value="1.1573439"/>
														<Node id="36">
															<SimplePredicate field="shower:number_of_pixel" operator="lessOrEqual" value="15"/>
															<Node id="37" score="0" recordCount="4.0">
																<SimplePredicate field="shower:number_of_pixel" operator="lessOrEqual" value="4.5"/>
																<ScoreDistribution value="0" recordCount="2.0"/>
																<ScoreDistribution value="1" recordCount="2.0"/>
															</Node>
															<Node id="38" score="0" recordCount="3.0">
																<SimplePredicate field="shower:number_of_pixel" operator="greaterThan" value="4.5"/>
																<ScoreDistribution value="0" recordCount="3.0"/>
																<ScoreDistribution value="1" recordCount="0.0"/>
															</Node>
														</Node>
														<Node id="39">
															<SimplePredicate field="shower:number_of_pixel" operator="greaterThan" value="15"/>
															<Node id="40" score="0" recordCount="6.0">
																<SimplePredicate field="array:num_triggered_telescopes" operator="lessOrEqual" value="3.5"/>
																<ScoreDistribution value="0" recordCount="3.0"/>
																<ScoreDistribution value="1" recordCount="3.0"/>
															</Node>
															<Node id="41" score="1" recordCount="42.0">
																<SimplePredicate field="array:num_triggered_telescopes" operator="greaterThan" value="3.5"/>
																<ScoreDistribution value="0" recordCount="3.0"/>
																<ScoreDistribution value="1" recordCount="39.0"/>
															</Node>
														</Node>
													</Node>
													<Node id="42" score="0" recordCount="35.0">
														<SimplePredicate field="shower:skewness" operator="greaterThan" value="1.1573439"/>
														<ScoreDistribution value="0" recordCount="35.0"/>
														<ScoreDistribution value="1" recordCount="0.0"/>
													</Node>
												</Node>
												<Node id="43">
													<SimplePredicate field="shower:number_of_pixel" operator="greaterThan" value="66.5"/>
													<Node id="44" score="0" recordCount="21.0">
														<SimplePredicate field="shower:skewness" operator="lessOrEqual" value="-0.23480098"/>
														<ScoreDistribution value="0" recordCount="21.0"/>
														<ScoreDistribution value="1" recordCount="0.0"/>
													</Node>
													<Node id="45">
														<SimplePredicate field="shower:skewness" operator="greaterThan" value="-0.23480098"/>
														<Node id="46">
															<SimplePredicate field="shower:size" operator="lessOrEqual" value="2408.375"/>
															<Node id="47" score="0" recordCount="37.0">
																<SimplePredicate field="shower:miss" operator="lessOrEqual" value="0.050301746"/>
																<ScoreDistribution value="0" recordCount="20.0"/>
																<ScoreDistribution value="1" recordCount="17.0"/>
															</Node>
															<Node id="48" score="0" recordCount="13.0">
																<SimplePredicate field="shower:miss" operator="greaterThan" value="0.050301746"/>
																<ScoreDistribution value="0" recordCount="13.0"/>
																<ScoreDistribution value="1" recordCount="0.0"/>
															</Node>
														</Node>
														<Node id="49">
															<SimplePredicate field="shower:size" operator="greaterThan" value="2408.375"/>
															<Node id="50" score="0" recordCount="35.0">
																<SimplePredicate field="shower:number_of_pixel" operator="lessOrEqual" value="139"/>
																<ScoreDistribution value="0" recordCount="35.0"/>
																<ScoreDistribution value="1" recordCount="0.0"/>
															</Node>
															<Node id="51" score="0" recordCount="26.0">
																<SimplePredicate field="shower:number_of_pixel" operator="greaterThan" value="139"/>
																<ScoreDistribution value="0" recordCount="20.0"/>
																<ScoreDistribution value="1" recordCount="6.0"/>
															</Node>
														</Node>
													</Node>
												</Node>
											</Node>
										</Node>
									</Node>
									<Node id="52">
										<SimplePredicate field="shower:kurtosis" operator="greaterThan" value="3.7329001"/>
										<Node id="53">
											<SimplePredicate field="shower:length" operator="lessOrEqual" value="0.3553937"/>
											<Node id="54">
												<SimplePredicate field="shower:size" operator="lessOrEqual" value="341.09015"/>
												<Node id="55" score="0" recordCount="6.0">
													<SimplePredicate field="shower:skewness" operator="lessOrEqual" value="-2.3754773"/>
													<ScoreDistribution value="0" recordCount="6.0"/>
													<ScoreDistribution value="1" recordCount="0.0"/>
												</Node>
												<Node id="56">
													<SimplePredicate field="shower:skewness" operator="greaterThan" value="-2.3754773"/>
													<Node id="57" score="1" recordCount="17.0">
														<SimplePredicate field="shower:number_of_pixel" operator="lessOrEqual" value="14"/>
														<ScoreDistribution value="0" recordCount="0.0"/>
														<ScoreDistribution value="1" recordCount="17.0"/>
													</Node>
													<Node id="58" score="0" recordCount="4.0">
														<SimplePredicate field="shower:number_of_pixel" operator="greaterThan" value="14"/>
														<ScoreDistribution value="0" recordCount="4.0"/>
														<ScoreDistribution value="1" recordCount="0.0"/>
													</Node>
												</Node>
											</Node>
											<Node id="59">
												<SimplePredicate field="shower:size" operator="greaterThan" value="341.09015"/>
												<Node id="60">
													<SimplePredicate field="shower:size" operator="lessOrEqual" value="2819.6836"/>
													<Node id="61" score="1" recordCount="66.0">
														<SimplePredicate field="shower:number_of_pixel" operator="lessOrEqual" value="45"/>
														<ScoreDistribution value="0" recordCount="0.0"/>
														<ScoreDistribution value="1" recordCount="66.0"/>
													</Node>
													<Node id="62">
														<SimplePredicate field="shower:number_of_pixel" operator="greaterThan" value="45"/>
														<Node id="63">
															<SimplePredicate field="shower:number_of_pixel" operator="lessOrEqual" value="49.5"/>
															<Node id="64" score="1" recordCount="1.0">
																<SimplePredicate field="shower:length" operator="lessOrEqual" value="0.18952343"/>
																<ScoreDistribution value="0" recordCount="0.0"/>
																<ScoreDistribution value="1" recordCount="1.0"/>
															</Node>
															<Node id="65" score="0" recordCount="1.0">
																<SimplePredicate field="shower:length" operator="greaterThan" value="0.18952343"/>
																<ScoreDistribution value="0" recordCount="1.0"/>
																<ScoreDistribution value="1" recordCount="0.0"/>
															</Node>
														</Node>
														<Node id="66">
															<SimplePredicate field="shower:number_of_pixel" operator="greaterThan" value="49.5"/>
															<Node id="67" score="1" recordCount="58.0">
																<SimplePredicate field="shower:miss" operator="lessOrEqual" value="0.062245093"/>
																<ScoreDistribution value="0" recordCount="0.0"/>
																<ScoreDistribution value="1" recordCount="58.0"/>
															</Node>
															<Node id="68" score="1" recordCount="10.0">
																<SimplePredicate field="shower:miss" operator="greaterThan" value="0.062245093"/>
																<ScoreDistribution value="0" recordCount="1.0"/>
																<ScoreDistribution value="1" recordCount="9.0"/>
															</Node>
														</Node>
													</Node>
												</Node>
												<Node id="69">
													<SimplePredicate field="shower:size" operator="greaterThan" value="2819.6836"/>
													<Node id="70" score="1" recordCount="12.0">
														<SimplePredicate field="shower:width" operator="lessOrEqual" value="0.2703591"/>
														<ScoreDistribution value="0" recordCount="0.0"/>
														<ScoreDistribution value="1" recordCount="12.0"/>
													</Node>
													<Node id="71">
														<SimplePredicate field="shower:width" operator="greaterThan" value="0.2703591"/>
														<Node id="72">
															<SimplePredicate field="array:num_triggered_telescopes" operator="lessOrEqual" value="13"/>
															<Node id="73" score="1" recordCount="7.0">
																<SimplePredicate field="shower:number_of_pixel" operator="lessOrEqual" value="118"/>
																<ScoreDistribution value="0" recordCount="3.0"/>
																<ScoreDistribution value="1" recordCount="4.0"/>
															</Node>
															<Node id="74" score="1" recordCount="28.0">
																<SimplePredicate field="shower:number_of_pixel" operator="greaterThan" value="118"/>
																<ScoreDistribution value="0" recordCount="3.0"/>
																<ScoreDistribution value="1" recordCount="25.0"/>
															</Node>
														</Node>
														<Node id="75" score="0" recordCount="2.0">
															<SimplePredicate field="array:num_triggered_telescopes" operator="greaterThan" value="13"/>
															<ScoreDistribution value="0" recordCount="2.0"/>
															<ScoreDistribution value="1" recordCount="0.0"/>
														</Node>
													</Node>
												</Node>
											</Node>
										</Node>
										<Node id="76">
											<SimplePredicate field="shower:length" operator="greaterThan" value="0.3553937"/>
											<Node id="77">
												<SimplePredicate field="array:num_triggered_telescopes" operator="lessOrEqual" value="9.5"/>
												<Node id="78">
													<SimplePredicate field="shower:number_of_pixel" operator="lessOrEqual" value="143"/>
													<Node id="79">
														<SimplePredicate field="shower:skewness" operator="lessOrEqual" value="-0.1424407"/>
														<Node id="80">
															<SimplePredicate field="shower:length" operator="lessOrEqual" value="0.3789913"/>
															<Node id="81" score="1" recordCount="8.0">
																<SimplePredicate field="array:num_triggered_telescopes" operator="lessOrEqual" value="5.5"/>
																<ScoreDistribution value="0" recordCount="2.0"/>
																<ScoreDistribution value="1" recordCount="6.0"/>
															</Node>
															<Node id="82" score="1" recordCount="13.0">
																<SimplePredicate field="array:num_triggered_telescopes" operator="greaterThan" value="5.5"/>
																<ScoreDistribution value="0" recordCount="0.0"/>
																<ScoreDistribution value="1" recordCount="13.0"/>
															</Node>
														</Node>
														<Node id="83" score="1" recordCount="16.0">
															<SimplePredicate field="shower:length" operator="greaterThan" value="0.3789913"/>
															<ScoreDistribution value="0" recordCount="0.0"/>
															<ScoreDistribution value="1" recordCount="16.0"/>
														</Node>
													</Node>
													<Node id="84">
														<SimplePredicate field="shower:skewness" operator="greaterThan" value="-0.1424407"/>
														<Node id="85">
															<SimplePredicate field="array:num_triggered_telescopes" operator="lessOrEqual" value="3.5"/>
															<Node id="86" score="0" recordCount="7.0">
																<SimplePredicate field="shower:number_of_pixel" operator="lessOrEqual" value="91.5"/>
																<ScoreDistribution value="0" recordCount="7.0"/>
																<ScoreDistribution value="1" recordCount="0.0"/>
															</Node>
															<Node id="87" score="1" recordCount="16.0">
																<SimplePredicate field="shower:number_of_pixel" operator="greaterThan" value="91.5"/>
																<ScoreDistribution value="0" recordCount="6.0"/>
																<ScoreDistribution value="1" recordCount="10.0"/>
															</Node>
														</Node>
														<Node id="88">
															<SimplePredicate field="array:num_triggered_telescopes" operator="greaterThan" value="3.5"/>
															<Node id="89" score="1" recordCount="47.0">
																<SimplePredicate field="shower:kurtosis" operator="lessOrEqual" value="4.397997"/>
																<ScoreDistribution value="0" recordCount="16.0"/>
																<ScoreDistribution value="1" recordCount="31.0"/>
															</Node>
															<Node id="90" score="1" recordCount="16.0">
																<SimplePredicate field="shower:kurtosis" operator="greaterThan" value="4.397997"/>
																<ScoreDistribution value="0" recordCount="0.0"/>
																<ScoreDistribution value="1" recordCount="16.0"/>
															</Node>
														</Node>
													</Node>
												</Node>
												<Node id="91">
													<SimplePredicate field="shower:number_of_pixel" operator="greaterThan" value="143"/>
													<Node id="92" score="0" recordCount="6.0">
														<SimplePredicate field="shower:number_of_pixel" operator="lessOrEqual" value="148.5"/>
														<ScoreDistribution value="0" recordCount="6.0"/>
														<ScoreDistribution value="1" recordCount="0.0"/>
													</Node>
													<Node id="93" score="1" recordCount="2.0">
														<SimplePredicate field="shower:number_of_pixel" operator="greaterThan" value="148.5"/>
														<ScoreDistribution value="0" recordCount="0.0"/>
														<ScoreDistribution value="1" recordCount="2.0"/>
													</Node>
												</Node>
											</Node>
											<Node id="94">
												<SimplePredicate field="array:num_triggered_telescopes" operator="greaterThan" value="9.5"/>
												<Node id="95">
													<SimplePredicate field="shower:kurtosis" operator="lessOrEqual" value="3.9622998"/>
													<Node id="96" score="1" recordCount="3.0">
														<SimplePredicate field="shower:size" operator="lessOrEqual" value="3024.3525"/>
														<ScoreDistribution value="0" recordCount="0.0"/>
														<ScoreDistribution value="1" recordCount="3.0"/>
													</Node>
													<Node id="97" score="0" recordCount="1.0">
														<SimplePredicate field="shower:size" operator="greaterThan" value="3024.3525"/>
														<ScoreDistribution value="0" recordCount="1.0"/>
														<ScoreDistribution value="1" recordCount="0.0"/>
													</Node>
												</Node>
												<Node id="98" score="1" recordCount="24.0">
													<SimplePredicate field="shower:kurtosis" operator="greaterThan" value="3.9622998"/>
													<ScoreDistribution value="0" recordCount="0.0"/>
													<ScoreDistribution value="1" recordCount="24.0"/>
												</Node>
											</Node>
										</Node>
									</Node>
								</Node>
								<Node id="99" score="0" recordCount="43.0">
									<SimplePredicate field="shower:number_of_pixel" operator="greaterThan" value="169.5"/>
									<ScoreDistribution value="0" recordCount="43.0"/>
									<ScoreDistribution value="1" recordCount="0.0"/>
								</Node>
							</Node>
							<Node id="100">
								<SimplePredicate field="shower:width" operator="greaterThan" value="0.37367415"/>
								<Node id="101" score="0" recordCount="14.0">
									<SimplePredicate field="shower:skewness" operator="lessOrEqual" value="-0.18470557"/>
									<ScoreDistribution value="0" recordCount="14.0"/>
									<ScoreDistribution value="1" recordCount="0.0"/>
								</Node>
								<Node id="102">
									<SimplePredicate field="shower:skewness" operator="greaterThan" value="-0.18470557"/>
									<Node id="103">
										<SimplePredicate field="shower:width" operator="lessOrEqual" value="0.3971018"/>
										<Node id="104" score="0" recordCount="6.0">
											<SimplePredicate field="shower:number_of_pixel" operator="lessOrEqual" value="95.5"/>
											<ScoreDistribution value="0" recordCount="6.0"/>
											<ScoreDistribution value="1" recordCount="0.0"/>
										</Node>
										<Node id="105">
											<SimplePredicate field="shower:number_of_pixel" operator="greaterThan" value="95.5"/>
											<Node id="106">
												<SimplePredicate field="shower:kurtosis" operator="lessOrEqual" value="3.7441986"/>
												<Node id="107">
													<SimplePredicate field="shower:size" operator="lessOrEqual" value="2278.5488"/>
													<Node id="108" score="0" recordCount="3.0">
														<SimplePredicate field="shower:length" operator="lessOrEqual" value="0.4136797"/>
														<ScoreDistribution value="0" recordCount="3.0"/>
														<ScoreDistribution value="1" recordCount="0.0"/>
													</Node>
													<Node id="109" score="1" recordCount="1.0">
														<SimplePredicate field="shower:length" operator="greaterThan" value="0.4136797"/>
														<ScoreDistribution value="0" recordCount="0.0"/>
														<ScoreDistribution value="1" recordCount="1.0"/>
													</Node>
												</Node>
												<Node id="110" score="0" recordCount="17.0">
													<SimplePredicate field="shower:size" operator="greaterThan" value="2278.5488"/>
													<ScoreDistribution value="0" recordCount="17.0"/>
													<ScoreDistribution value="1" recordCount="0.0"/>
												</Node>
											</Node>
											<Node id="111">
												<SimplePredicate field="shower:kurtosis" operator="greaterThan" value="3.7441986"/>
												<Node id="112">
													<SimplePredicate field="shower:miss" operator="lessOrEqual" value="0.02158536"/>
													<Node id="113" score="0" recordCount="3.0">
														<SimplePredicate field="shower:number_of_pixel" operator="lessOrEqual" value="113"/>
														<ScoreDistribution value="0" recordCount="3.0"/>
														<ScoreDistribution value="1" recordCount="0.0"/>
													</Node>
													<Node id="114" score="1" recordCount="1.0">
														<SimplePredicate field="shower:number_of_pixel" operator="greaterThan" value="113"/>
														<ScoreDistribution value="0" recordCount="0.0"/>
														<ScoreDistribution value="1" recordCount="1.0"/>
													</Node>
												</Node>
												<Node id="115" score="1" recordCount="3.0">
													<SimplePredicate field="shower:miss" operator="greaterThan" value="0.02158536"/>
													<ScoreDistribution value="0" recordCount="0.0"/>
													<ScoreDistribution value="1" recordCount="3.0"/>
												</Node>
											</Node>
										</Node>
									</Node>
									<Node id="116">
										<SimplePredicate field="shower:width" operator="greaterThan" value="0.3971018"/>
										<Node id="117">
											<SimplePredicate field="array:num_triggered_telescopes" operator="lessOrEqual" value="9"/>
											<Node id="118" score="1" recordCount="1.0">
												<SimplePredicate field="shower:length" operator="lessOrEqual" value="0.40058732"/>
												<ScoreDistribution value="0" recordCount="0.0"/>
												<ScoreDistribution value="1" recordCount="1.0"/>
											</Node>
											<Node id="119" score="0" recordCount="3.0">
												<SimplePredicate field="shower:length" operator="greaterThan" value="0.40058732"/>
												<ScoreDistribution value="0" recordCount="3.0"/>
												<ScoreDistribution value="1" recordCount="0.0"/>
											</Node>
										</Node>
										<Node id="120" score="1" recordCount="3.0">
											<SimplePredicate field="array:num_triggered_telescopes" operator="greaterThan" value="9"/>
											<ScoreDistribution value="0" recordCount="0.0"/>
											<ScoreDistribution value="1" recordCount="3.0"/>
										</Node>
									</Node>
								</Node>
							</Node>
						</Node>
						<Node id="121">
							<SimplePredicate field="array:num_triggered_telescopes" operator="greaterThan" value="15"/>
							<Node id="122">
								<SimplePredicate field="shower:kurtosis" operator="lessOrEqual" value="5.75392"/>
								<Node id="123">
									<SimplePredicate field="shower:number_of_pixel" operator="lessOrEqual" value="200.5"/>
									<Node id="124" score="1" recordCount="50.0">
										<SimplePredicate field="array:num_triggered_telescopes" operator="lessOrEqual" value="21"/>
										<ScoreDistribution value="0" recordCount="0.0"/>
										<ScoreDistribution value="1" recordCount="50.0"/>
									</Node>
									<Node id="125" score="0" recordCount="6.0">
										<SimplePredicate field="array:num_triggered_telescopes" operator="greaterThan" value="21"/>
										<ScoreDistribution value="0" recordCount="6.0"/>
										<ScoreDistribution value="1" recordCount="0.0"/>
									</Node>
								</Node>
								<Node id="126">
									<SimplePredicate field="shower:number_of_pixel" operator="greaterThan" value="200.5"/>
									<Node id="127" score="0" recordCount="8.0">
										<SimplePredicate field="shower:skewness" operator="lessOrEqual" value="0.9311601"/>
										<ScoreDistribution value="0" recordCount="8.0"/>
										<ScoreDistribution value="1" recordCount="0.0"/>
									</Node>
									<Node id="128" score="1" recordCount="2.0">
										<SimplePredicate field="shower:skewness" operator="greaterThan" value="0.9311601"/>
										<ScoreDistribution value="0" recordCount="0.0"/>
										<ScoreDistribution value="1" recordCount="2.0"/>
									</Node>
								</Node>
							</Node>
							<Node id="129" score="1" recordCount="19.0">
								<SimplePredicate field="shower:kurtosis" operator="greaterThan" value="5.75392"/>
								<ScoreDistribution value="0" recordCount="0.0"/>
								<ScoreDistribution value="1" recordCount="19.0"/>
							</Node>
						</Node>
					</Node>
				</TreeModel>
			</Segment>
			<Segment id="4">
				<True/>
				<TreeModel functionName="classification" splitCharacteristic="binarySplit">
					<MiningSchema>
						<MiningField name="shower:number_of_pixel"/>
						<MiningField name="shower:width"/>
						<MiningField name="shower:length"/>
						<MiningField name="shower:skewness"/>
						<MiningField name="shower:kurtosis"/>
						<MiningField name="shower:miss"/>
						<MiningField name="shower:size"/>
						<MiningField name="array:num_triggered_telescopes"/>
					</MiningSchema>
					<Node id="1">
						<True/>
						<Node id="2">
							<SimplePredicate field="shower:length" operator="lessOrEqual" value="0.41752994"/>
							<Node id="3">
								<SimplePredicate field="shower:width" operator="lessOrEqual" value="0.051335983"/>
								<Node id="4">
									<SimplePredicate field="shower:width" operator="lessOrEqual" value="0.0030244268"/>
									<Node id="5">
										<SimplePredicate field="shower:number_of_pixel" operator="lessOrEqual" value="3.5"/>
										<Node id="6">
											<SimplePredicate field="shower:length" operator="lessOrEqual" value="0.0077310116"/>
											<Node id="7" score="0" recordCount="1.0">
												<SimplePredicate field="shower:size" operator="lessOrEqual" value="42.57515"/>
												<ScoreDistribution value="0" recordCount="1.0"/>
												<ScoreDistribution value="1" recordCount="0.0"/>
											</Node>
											<Node id="8" score="1" recordCount="8.0">
												<SimplePredicate field="shower:size" operator="greaterThan" value="42.57515"/>
												<ScoreDistribution value="0" recordCount="0.0"/>
												<ScoreDistribution value="1" recordCount="8.0"/>
											</Node>
										</Node>
										<Node id="9">
											<SimplePredicate field="shower:length" operator="greaterThan" value="0.0077310116"/>
											<Node id="10">
												<SimplePredicate field="shower:kurtosis" operator="lessOrEqual" value="2.06141"/>
												<Node id="11" score="0" recordCount="15.0">
													<SimplePredicate field="shower:width" operator="lessOrEqual" value="0.001826379"/>
													<ScoreDistribution value="0" recordCount="15.0"/>
													<ScoreDistribution value="1" recordCount="0.0"/>
												</Node>
												<Node id="12">
													<SimplePredicate field="shower:width" operator="greaterThan" value="0.001826379"/>
													<Node id="13" score="0" recordCount="4.0">
														<SimplePredicate field="shower:length" operator="lessOrEqual" value="0.030271009"/>
														<ScoreDistribution value="0" recordCount="4.0"/>
														<ScoreDistribution value="1" recordCount="0.0"/>
													</Node>
													<Node id="14" score="1" recordCount="2.0">
														<SimplePredicate field="shower:length" operator="greaterThan" value="0.030271009"/>
														<ScoreDistribution value="0" recordCount="0.0"/>
														<ScoreDistribution value="1" recordCount="2.0"/>
													</Node>
												</Node>
											</Node>
											<Node id="15">
												<SimplePredicate field="shower:kurtosis" operator="greaterThan" value="2.06141"/>
												<Node id="16" score="1" recordCount="2.0">
													<SimplePredicate field="shower:width" operator="lessOrEqual" value="2.1537388E-4"/>
													<ScoreDistribution value="0" recordCount="0.0"/>
													<ScoreDistribution value="1" recordCount="2.0"/>
												</Node>
												<Node id="17">
													<SimplePredicate field="shower:width" operator="greaterThan" value="2.1537388E-4"/>
													<Node id="18" score="0" recordCount="3.0">
														<SimplePredicate field="array:num_triggered_telescopes" operator="lessOrEqual" value="10.5"/>
														<ScoreDistribution value="0" recordCount="3.0"/>
														<ScoreDistribution value="1" recordCount="0.0"/>
													</Node>
													<Node id="19" score="1" recordCount="1.0">
														<SimplePredicate field="array:num_triggered_telescopes" operator="greaterThan" value="10.5"/>
														<ScoreDistribution value="0" recordCount="0.0"/>
														<ScoreDistribution value="1" recordCount="1.0"/>
													</Node>
												</Node>
											</Node>
										</Node>
									</Node>
									<Node id="20">
										<SimplePredicate field="shower:number_of_pixel" operator="greaterThan" value="3.5"/>
										<Node id="21">
											<SimplePredicate field="shower:length" operator="lessOrEqual" value="0.041168444"/>
											<Node id="22" score="0" recordCount="2.0">
												<SimplePredicate field="shower:kurtosis" operator="lessOrEqual" value="2.2028306"/>
												<ScoreDistribution value="0" recordCount="2.0"/>
												<ScoreDistribution value="1" recordCount="0.0"/>
											</Node>
											<Node id="23" score="1" recordCount="42.0">
												<SimplePredicate field="shower:kurtosis" operator="greaterThan" value="2.2028306"/>
												<ScoreDistribution value="0" recordCount="0.0"/>
												<ScoreDistribution value="1" recordCount="42.0"/>
											</Node>
										</Node>
										<Node id="24" score="0" recordCount="2.0">
											<SimplePredicate field="shower:length" operator="greaterThan" value="0.041168444"/>
											<ScoreDistribution value="0" recordCount="2.0"/>
											<ScoreDistribution value="1" recordCount="0.0"/>
										</Node>
									</Node>
								</Node>
								<Node id="25">
									<SimplePredicate field="shower:width" operator="greaterThan" value="0.0030244268"/>
									<Node id="26">
										<SimplePredicate field="array:num_triggered_telescopes" operator="lessOrEqual" value="8"/>
										<Node id="27">
											<SimplePredicate field="shower:kurtosis" operator="lessOrEqual" value="4.830412"/>
											<Node id="28" score="0" recordCount="57.0">
												<SimplePredicate field="shower:miss" operator="lessOrEqual" value="0.006530104"/>
												<ScoreDistribution value="0" recordCount="57.0"/>
												<ScoreDistribution value="1" recordCount="0.0"/>
											</Node>
											<Node id="29">
												<SimplePredicate field="shower:miss" operator="greaterThan" value="0.006530104"/>
												<Node id="30" score="1" recordCount="2.0">
													<SimplePredicate field="shower:length" operator="lessOrEqual" value="0.009398417"/>
													<ScoreDistribution value="0" recordCount="0.0"/>
													<ScoreDistribution value="1" recordCount="2.0"/>
												</Node>
												<Node id="31" score="0" recordCount="5.0">
													<SimplePredicate field="shower:length" operator="greaterThan" value="0.009398417"/>
													<ScoreDistribution value="0" recordCount="5.0"/>
													<ScoreDistribution value="1" recordCount="0.0"/>
												</Node>
											</Node>
										</Node>
										<Node id="32" score="1" recordCount="8.0">
											<SimplePredicate field="shower:kurtosis" operator="greaterThan" value="4.830412"/>
